tree
version=v4
num_class=1
num_tree_per_iteration=1
label_index=0
max_feature_idx=52
objective=binary sigmoid:1
feature_names=education migration_code_change_in_reg detailed_household_and_family_stat country_of_birth_self detailed_industry_recode num_persons_worked_for_employer capital_losses detailed_household_summary_in_household has_dividends has_capital_gains country_of_birth_father tax_filer_stat hispanic_origin major_industry_code work_intensity marital_stat full_or_part_time_employment_stat total_financial_assets country_of_birth_mother class_of_worker dividends_from_stocks capital_gains has_wage migration_code_change_in_msa has_capital_losses veterans_benefits age major_occupation_code own_business_or_self_employed weeks_worked_in_year sex__Female sex__Male member_of_labor_union__No member_of_labor_union__Not_in_universe member_of_labor_union__Yes family_members_under_18__Both_parents_present family_members_under_18__Father_only_present family_members_under_18__Mother_only_present family_members_under_18__Neither_parent_present family_members_under_18__Not_in_universe race__Amer_Indian_Aleut_or_Eskimo race__Asian_or_Pacific_Islander race__Black race__Other race__White citizenship__Foreign_born-_Not_a_citizen_of_U_S_ citizenship__Foreign_born-_U_S_citizen_by_naturalization citizenship__Native-_Born_abroad_of_American_Parent(s) citizenship__Native-_Born_in_Puerto_Rico_or_U_S_Outlying citizenship__Native-_Born_in_the_United_States enroll_in_edu_inst_last_wk__College_or_university enroll_in_edu_inst_last_wk__High_school enroll_in_edu_inst_last_wk__Not_in_universe
feature_infos=[802:43642] [344:74944] [2:51118] [23:130943] [0:50] [0:6] [0:1944] [46:71761] [0:1] [0:1] [25:115471] [3456:64159] [294:128819] [36:54548] [0:312] [658:77842] [525:83341] [-1944:19835.949999999542] [32:116617] [163:71738] [0:5751.949999999546] [0:14084] [0:1] [73:74944] [0:1] [0:2] [1:86] [36:54548] [0:2] [0:52] -1:1:0 -1:0:1 -1:0:1 -1:1:0 -1:0:1 -1:0:1 -1:0 -1:0:1 -1:0 -1:1:0 -1:0:1 -1:0:1 -1:0:1 -1:0:1 -1:1:0 -1:0:1 -1:0:1 -1:0:1 -1:0 -1:1:0 -1:0:1 -1:0:1 -1:1:0
tree_sizes=2315 2363 3191 2938 2361 2387 2255 2885 2164 3089 2616 2714 2577 1897 2927 2178 1883 1969 2790 1859 1753 3333 3199 1946 3236 2198 2275 1537 3461 1527 2831 1535 1917 2586 1640 3040 1557 1421 1968 1974 1977 2216 1974 2397 3244 1889 1727 1659 2597 1729 3152 1453 1745 2499 1296 2562 3279 3011 1415 2578 2932 3053 1882 2107 2329 3470 1881 3242 2881 2702 1399 2706 2182 2927 2326 1844 2481 3114 3063 3087 2151 3320 2583 1997 3207 1389 1464 1316 3197 2629 2515 2381 3362 2313 2859 1833 1339 2182 1126 2960 1220 2350 1510 1586 1499 2627 3101 3139 1851 3458 2373 2687 2257 2145 1518 2027 3080 3202 2445 2568 2903 2071 2581 3233 1735 3058 3324 1929 2299 1925 1090 2453 2392 3072 2496 1719 3136 2571 2291 2488 2112 1845 2946 1972 2889 2592 2918 2843 2471 3032 3214 3023 2483 2051 1555 2623 1509 3341 3162 2104 3090 2518 2158 2421 3130 2762 2954 2710 2378 1223 1509 3246 2830 1304 1521 1409 3088 2377 3021 2433 2470 2213 2830 1495 2028 2978 1331 2263 2107 3150 2446 2611 1391 1316 1794 2082 2220 2820 3031 2808 2883 1232 2366 2944 3231 1942 3116 3054 2928 1645 3037 2503 3354 2491 2273 3111 2936 2868 2472 2875 2421 2120 2274 1982 1504 1498 2643 2078 2885 2305 2146 1553 1311 2605 904 2265 2457 2569 3458 2478 2686 1310 1111 1313 1723 2660 2966 2413 1983 3139 2120 2890 1950 2182 2889 2512 2951 2480 3459 2147 2511 2840 2892 2577 2238 2267 2381 2890 2727 2559 1834 2913 1853 2447 2095 1535 2708 1802 1744 1994 2954 2777 2596 2134 2973 2607 3365 3033 1889 2639 1798 2783 2727 2089 3026 2170 2368 2353 2055 2750 2196 2256 2810 2416 2583 1320 1321 1919 2564 2636 2181 2946 2996 2637 2895 3016 1506 2077 3057 2916 2705 2762 2260 2447 1909 1652 1774 1301 2289 2768 2706 3497 1418 2280 1283 3245 3391 2302 2090 1198 2917 2978 3227 1781 2820 2319 2577 3462 2135 1838 2161 2334 2458 2483 2142 1592 2312 1975 1946 2104 3141 2218 2374 2833 1722 2316 3411 1691 1545 1959 2438 1017 1930 2682 2205 1190 1283 3234 1606 2109 1372 2921 2811 2669 3115 3373

Tree=0
num_leaves=21
num_cat=4
split_feature=29 17 30 17 26 29 26 30 26 2 14 26 26 30 30 17 26 26 29 26
split_gain=121525 36876.1 22357.4 21320.2 15927.1 5100.1 3141.56 2995.26 2634.52 2632.1 1793.85 1786.38 1260.1 966.543 693.414 524.177 472.808 322.418 200.385 103.111
threshold=45.500000000000007 1.0000000180025095e-35 0 3790.0000000000005 29.500000000000004 25.500000000000004 29.500000000000004 1 38.500000000000007 17907.000000000004 303.00000000000006 46.500000000000007 25.500000000000004 2 3 98.500000000000014 26.500000000000004 23.500000000000004 11.500000000000002 28.500000000000004
decision_type=2 2 1 2 2 2 2 1 2 2 2 2 2 1 1 2 2 2 2 2
left_child=3 2 6 5 12 11 17 15 16 -6 -8 18 -4 -13 -10 -3 -7 -2 -1 -9
right_child=1 7 4 -5 9 8 10 19 14 -11 -12 13 -14 -15 -16 -17 -18 -19 -20 -21
leaf_value=-2.511490423702726 -2.4855475327051035 -1.9837780588355611 -2.3893731060631191 -1.6653230833136567 -2.0985885183688144 -2.4481276869990474 -2.1776660146175972 -1.8582892600609506 -2.1961069831336002 -1.6726960615361544 -1.9689835266280924 -2.4287711053274088 -2.1066821351825884 -2.2755299575934842 -1.9223643122351881 -1.6655560475367541 -2.2696808131158486 -2.321089528536886 -2.4311210330921793 -1.4552740928944212
leaf_weight=1424.3094800412655 129.09788005053997 135.70897676050663 241.27678267657757 330.37100084125996 155.31666718423367 200.69211401045322 885.12497551739216 86.337612271308899 184.64323915541172 2937.4478696286678 597.8640928119421 735.88334739208221 249.12479765713215 551.20994180440903 211.3146386295557 646.16530314087868 234.32668536901474 238.5382492095232 298.80738981068134 2474.8909844458103
leaf_count=18961 1695 986 2893 1366 1343 2544 8662 467 1810 13376 4508 9152 2211 5953 1433 2795 2499 2680 3729 5631
internal_value=-1.93511 -1.74974 -1.89406 -2.3263 -1.76586 -2.3861 -2.14595 -1.51886 -2.1955 -1.6922 -2.08938 -2.43953 -2.23951 -2.3618 -2.03545 -1.71054 -2.35058 -2.37968 -2.49789 -1.46518
internal_weight=12948.5 8776.89 5433.79 4171.56 3583.17 3841.19 1850.63 3343.1 830.977 3092.76 1482.99 3010.21 490.402 1287.09 395.958 781.874 435.019 367.636 1723.12 2561.23
internal_count=94694 47247 37368 47447 19823 46081 17545 9879 8286 14719 13170 37795 5104 15105 3243 3781 5043 4375 22690 6098
cat_boundaries=0 1 2 3 4
cat_threshold=2 2 2 2
is_linear=0
shrinkage=1


Tree=1
num_leaves=21
num_cat=3
split_feature=13 20 2 2 20 30 30 20 5 4 5 30 20 2 9 5 9 11 11 20
split_gain=27143.4 7703.44 6741.59 3864.23 3803.95 3843.57 3382.39 1293.3 1270.29 910.864 787.043 558.96 481.179 408.281 341.093 282.737 219.968 110.103 64.3063 11.8782
threshold=12949.500000000002 78.500000000000014 17907.000000000004 17907.000000000004 9.5000000000000018 0 1 5.5000000000000009 1.0000000180025095e-35 6.5000000000000009 4.5000000000000009 2 4739.5000000000009 8641.5000000000018 1.0000000180025095e-35 5.5000000000000009 1.0000000180025095e-35 35654.000000000007 35654.000000000007 3005.5000000000005
decision_type=2 2 2 2 2 1 1 2 2 2 2 1 2 2 2 2 2 2 2 2
left_child=2 3 7 16 5 10 14 13 -8 -7 -4 12 19 15 -5 -1 17 -2 -15 -3
right_child=1 11 4 6 -6 9 8 -9 -10 -11 -12 -13 -14 18 -16 -17 -18 -19 -20 -21
leaf_value=0.074573969601983439 -0.088164761215257223 0.13062073833440349 0.17210707194068522 -0.0038768942795429991 0.42828050686528124 0.27177119601472438 0.089843665310302787 0.35435376912772648 0.27209727330911626 0.37892550185793589 0.28147593503274432 0.38301013761333502 0.33691648389038109 -0.068515634277154902 0.18757656819061111 0.21499906376786476 0.12738455853984954 -0.028096325732372258 0.024843399746087159 0.016364596090607048
leaf_weight=332.28598649054766 960.11623097956181 203.08373335748911 1171.9119625836611 1139.1511541455984 4932.6510353758931 942.39946019649506 481.42580895870924 150.43046478927135 885.65939348191023 5429.2790091335773 1153.7339427098632 607.36531567573547 161.49992609769106 53.330175787210464 60.941275380551815 188.3057739213109 28.908466055989265 362.49057368189096 297.22088192403316 19.946893610060215
leaf_count=3102 13576 1825 9711 13521 7102 3824 4700 414 3675 14138 6791 1649 410 747 312 1284 164 4356 3253 140
internal_value=0.288512 0.109132 0.348428 0.0530638 0.364787 0.328034 0.116197 0.127627 0.209911 0.363834 0.228029 0.326039 0.22375 0.0825354 0.00782353 0.13081 -0.066549 -0.0724907 0.00734176 0.123655
internal_weight=19562.1 4910.59 14651.5 3918.69 13630 8697.32 2567.18 1021.57 1367.09 6371.68 2325.65 991.896 384.531 871.143 1200.09 520.592 1351.52 1322.61 350.551 223.031
internal_count=94694 44328 50366 40304 41566 34464 22208 8800 8375 17962 16502 4024 2375 8386 13833 4386 18096 17932 4000 1965
cat_boundaries=0 1 2 3
cat_threshold=2 2 2
is_linear=0
shrinkage=0.0878873


Tree=2
num_leaves=29
num_cat=0
split_feature=29 0 8 27 27 0 27 27 7 27 27 27 0 7 7 0 0 0 0 15 8 1 0 29 14 29 0 14
split_gain=19901.1 8487.13 4397.05 3507.96 2385.13 2189.97 1682.8 2038.06 1653.97 1604.99 683.135 569.761 486.687 426.41 403.663 356.325 280.961 197.285 195.328 157.233 130.819 110.826 103.244 84.0937 73.0937 48.1087 43.066 25.1251
threshold=33.500000000000007 22860.000000000004 1.0000000180025095e-35 12258.500000000002 14331.500000000002 6384.5000000000009 12258.500000000002 11845.000000000002 54463.000000000007 14331.500000000002 11845.000000000002 11845.000000000002 6384.5000000000009 54463.000000000007 54463.000000000007 6384.5000000000009 6473.5000000000009 1925.0000000000002 34985.500000000007 62957.500000000007 1.0000000180025095e-35 35841.500000000007 34985.500000000007 48.500000000000007 142.50000000000003 27.500000000000004 1925.0000000000002 53.000000000000007
decision_type=2 2 2 2 2 2 2 2 2 2 2 2 2 2 2 2 2 2 2 2 2 2 2 2 2 2 2 2
left_child=2 3 8 5 6 11 7 -3 19 26 -7 -2 -11 22 20 17 -17 -10 -15 25 -6 -16 27 -8 -21 -1 -5 -4
right_child=1 4 13 9 14 10 23 -9 15 12 -12 -13 -14 18 21 16 -18 -19 -20 24 -22 -23 -24 -25 -26 -27 -28 -29
leaf_value=-0.086387386339713185 0.15655281321260933 0.18713161861419755 0.10079169338658664 0.36995650207274733 -0.031566080454754862 0.29174400145810009 0.12034986671420712 -0.012528725097569431 0.11208669420573482 0.082715239296472412 0.021642003007179715 -0.0075948603187946297 0.24551049294726587 0.27543974037104413 -0.027968878892032239 0.26148774061914382 0.078604757054005228 -0.025776088691693393 0.12870176427616181 -0.034862677760168569 0.070524167461688589 0.11323859970473582 0.014382361650817577 0.27685547683025308 0.071683744996281967 0 0.32953993787732627 0.21170670838724021
leaf_weight=1151.2212086096406 1274.6744327992201 3928.5306985452771 171.52091705799103 1873.5412505194545 373.35630916804075 1900.661945939064 69.586891889572144 432.98921009898186 84.52137928456068 244.21749647706747 80.890628233551979 180.61887489259243 462.88496585935354 496.68203823268414 36.390565775334835 62.309971712529659 813.12585661560297 386.29882775247097 143.27867383509874 567.24787548184395 112.94555626064539 512.62168011814356 80.880113713443279 1673.6683971732855 37.936715930700302 51.336523182690144 6235.4192252680659 45.454445727169514
leaf_count=17081 5127 14105 1208 1402 3314 3657 372 3348 696 1383 557 1376 1388 1630 278 351 7484 4250 769 6915 480 2403 695 3822 292 593 9512 206
internal_value=0.216739 0.253881 0.0403221 0.298426 0.176905 0.220715 0.19782 0.167253 -0.00951713 0.328238 0.281154 0.136069 0.192778 0.205738 0.0521292 0.0636818 0.0963679 0.00102169 0.246975 -0.0643067 -0.00568131 0.102724 0.108117 0.271934 -0.0259701 -0.0827237 0.339613 0.138198
internal_weight=23484.8 19393 4091.81 12252.9 7140.09 3436.85 6104.78 4361.52 3154 8816.06 1981.55 1455.29 707.102 937.816 1035.31 1346.26 875.436 470.82 639.961 1807.74 486.302 549.012 297.855 1743.26 605.185 1202.56 8108.96 216.975
internal_count=94694 52524 42170 24402 28122 10717 21647 17453 37662 13685 4214 6503 2771 4508 6475 12781 7835 4946 2399 24881 3794 2681 2109 4194 7207 17674 10914 1414
is_linear=0
shrinkage=0.0878873


Tree=3
num_leaves=27
num_cat=4
split_feature=14 27 27 27 7 27 14 30 13 44 15 4 6 30 2 3 13 2 7 44 14 6 27 4 15 3
split_gain=11739.1 4015.91 5461 3073.25 2335.75 1475.83 2000.28 1410.28 720.305 464.03 435.004 271.387 244.008 236.166 203.179 123.125 113.586 98.2354 96.2054 76.0666 66.7241 64.5768 40.7445 32.4327 22.2045 7.068
threshold=40.500000000000007 12258.500000000002 14331.500000000002 11845.000000000002 54463.000000000007 11062.500000000002 297.00000000000006 0 12949.500000000002 1 62957.500000000007 31.500000000000004 1551.5000000000002 2 17907.000000000004 68161.000000000015 4332.0000000000009 17907.000000000004 54463.000000000007 3 5.5000000000000009 1551.5000000000002 3541.5000000000005 20.500000000000004 62957.500000000007 208.00000000000003
decision_type=2 2 2 2 2 2 2 1 2 1 2 2 2 1 2 2 2 2 2 1 2 2 2 2 2 2
left_child=4 3 12 5 10 6 -2 11 -7 13 25 -4 17 15 -9 -6 18 -3 -5 22 24 -15 -12 -18 -11 -1
right_child=1 2 7 16 9 8 -8 14 -10 20 19 -13 -14 21 -16 -17 23 -19 -20 -21 -22 -23 -24 -25 -26 -27
leaf_value=0 0.093801317487781366 0.17449924852837354 0.081658444883966577 -0.028662379035534712 -0.032319512995680498 0.25481137692340361 0.20304872087129008 0.039353827660283648 0.15261405492174149 -0.067254533636105174 0.111942119025509 -0.0046130684490722773 0.30558193602086714 0.12702808711214453 0.18890696111041103 0.078897450187660256 0.034837254325619238 0.24874790794900817 0.066146779876998976 -0.066713583101740831 0.060824065734605887 0.24406493747140906 0.010750240709330556 -0.050737399632866047 0 -0.083724812709972576
leaf_weight=12.712866883724926 3149.3105168603361 337.57226165384054 447.6937836445868 134.06957052275538 75.240018881857395 1794.0647839009762 2274.2436896786094 93.508666891604662 928.55646444857121 116.05982718616724 18.457864239811897 696.05559419095516 943.64045223593712 988.95259194076061 842.88150276988745 552.91949493438005 21.263056702911854 10437.746505737305 164.55038008838892 80.369744770228863 41.034042187035084 53.386292278766632 622.59998039901257 430.60197236016393 62.32994232326746 988.56387288123369
leaf_count=192 13234 1421 3041 1162 903 2634 4874 889 3802 1432 140 5104 688 5675 2094 4617 102 13588 889 1042 304 151 6563 3895 600 15658
internal_value=0.175263 0.198674 0.228556 0.151967 0.0278599 0.167623 0.140128 0.0960855 0.221154 0.0950333 -0.0458162 0.0294859 0.251881 0.110737 0.175241 0.0645536 -0.017449 0.24671 0.0231155 0.00579198 -0.0223915 0.136867 0.0167998 -0.0449093 -0.0467467 -0.0828765
internal_weight=26308.4 22695.8 13799.1 8896.66 3612.63 8146.18 5423.55 2080.14 2722.62 1889.92 1722.7 1143.75 11719 1670.5 936.39 628.16 750.485 10775.3 298.62 721.428 219.424 1042.34 641.058 451.865 178.39 1001.28
internal_count=94694 57417 26825 30592 37277 24544 18108 11128 6436 13682 23595 8145 15697 11346 2983 5520 6048 15009 2051 7745 2336 5826 6703 3997 2032 15850
cat_boundaries=0 1 2 3 4
cat_threshold=2 2 2 2
is_linear=0
shrinkage=0.0878873


Tree=4
num_leaves=21
num_cat=0
split_feature=14 17 17 27 27 27 24 2 20 20 17 17 11 20 15 20 21 28 21 3
split_gain=8459.1 3648.24 2870.67 3002.31 3839.46 1982.96 1202.35 706.469 490.583 293.352 201.09 166.294 144.535 127.276 68.8099 38.5368 17.0517 9.13852 8.47239 5.6031
threshold=40.500000000000007 3790.0000000000005 4655.0000000000009 12258.500000000002 14331.500000000002 11845.000000000002 1.0000000180025095e-35 17907.000000000004 87.500000000000014 149.50000000000003 -1.0000000180025095e-35 5750.9749999997739 35654.000000000007 56.500000000000007 62957.500000000007 1495.0000000000002 8254.0000000000018 1.0000000180025095e-35 9429.0000000000018 68161.000000000015
decision_type=2 2 2 2 2 2 2 2 2 2 2 2 2 2 2 2 2 2 2 2
left_child=1 7 3 5 10 6 -2 14 -6 12 -5 -3 -9 -7 17 -11 -13 -1 -4 -16
right_child=2 11 18 4 8 13 -8 9 -10 15 -12 16 -14 -15 19 -17 -18 -19 -20 -21
leaf_value=-0.084059062984769436 0.11369541392909027 0.098260204911630372 0.21422300584225781 0.24798660252957058 0.043268198663873034 -0.038171537846005653 0.24345434880667358 -0.024867071038857606 0.15574280003097915 0.055156807121121983 0.19707643285287491 0.19440960307687688 0.024964843212932155 0.089411502849249633 0 0.13017065175661305 0.29075598450198586 -0.010791034004296022 0.24556663525427402 0.047522425621362469
leaf_weight=894.86058324202895 6957.2606790587306 120.0439370572567 1991.0064497739077 984.59380353242159 1556.8093868046999 669.58351667970419 606.67642786353827 952.81880105286837 368.4212092012167 219.28469743579626 9124.4046194031835 307.50875993072987 821.99575074762106 50.067372381687164 14.004138085991142 113.48457149416208 190.40127946436405 29.974295776337385 2359.5341308563948 20.149496626108885
leaf_count=15442 22734 351 1666 700 9918 5887 846 10155 867 1503 13394 573 7911 166 191 647 151 423 1040 229
internal_value=0.148233 0.0237905 0.166778 0.152603 0.180768 0.111378 0.124629 -0.015688 0.0660548 0.0126899 0.202444 0.215847 -0.0015688 -0.0270977 -0.0776334 0.0864519 0.239653 -0.0822878 0.23212 0.0274162
internal_weight=28352.9 3684.53 24668.4 20317.8 12034.2 8283.59 7563.94 3066.57 1925.23 2107.58 10109 617.954 1774.81 719.651 958.989 332.769 497.91 924.835 4350.54 34.1536
internal_count=94794 37576 57218 54512 24879 29633 23580 36501 10785 20216 14094 1075 18066 6053 16285 2150 724 15865 2706 420
is_linear=0
shrinkage=0.0878873


Tree=5
num_leaves=21
num_cat=0
split_feature=26 27 27 27 20 20 26 9 24 24 9 20 27 20 26 9 19 13 10 24
split_gain=8200.66 3019.9 2671.08 1565.35 1471.1 1105.07 830.326 377.415 343.707 282.546 222.599 184.864 127.194 109.633 75.9072 57.721 28.9414 12.3985 6.13777 1.96466
threshold=27.500000000000004 14331.500000000002 12258.500000000002 11845.000000000002 160.50000000000003 22.500000000000004 21.500000000000004 1.0000000180025095e-35 1.0000000180025095e-35 1.0000000180025095e-35 1.0000000180025095e-35 5123.0000000000009 14331.500000000002 56.500000000000007 36.500000000000007 1.0000000180025095e-35 1651.5000000000002 6034.0000000000009 1752.0000000000002 1.0000000180025095e-35
decision_type=2 2 2 2 2 2 2 2 2 2 2 2 2 2 2 2 2 2 2 2
left_child=6 2 3 5 7 -2 15 9 10 -3 12 18 -8 -5 -4 16 -1 -18 -6 -16
right_child=1 4 14 13 11 -7 8 -9 -10 -11 -12 -13 -14 -15 19 -17 17 -19 -20 -21
leaf_value=0.015201067489369384 0.10976976634013491 0.025060892927514504 0.16198475718653615 -0.024554621648368795 0.057105648583428786 0.18243048264501324 0.014827096361671611 0.13098401439467608 0.20188475549318372 0.16831740662110795 0.11913187960296436 0.20020433584295486 -0.051180676343903962 0.087515381403831152 0.18246948248794756 0.035199713494262444 -0.048015431774370905 -0.088485131065381167 0.12629325304412573 0.20950156357077704
leaf_weight=12.826045986264942 6530.0552114099264 2697.2044821195304 2810.4379781745374 589.67337971553206 68.382986135780811 2250.1986002624035 985.13017484918237 317.54444886744022 62.364349607378244 97.092410318553448 118.34998570382595 484.19241179525852 275.51862981542945 59.664456136524677 9571.8539113178849 21.267681390047073 176.79888036474586 905.68661776557565 742.51480442285538 1021.0345034301281
leaf_count=205 18687 22514 4091 4689 327 2305 6296 941 198 404 290 573 3105 183 9759 117 1958 14993 2591 568
internal_value=0.128333 0.142457 0.155344 0.118996 0.0752915 0.128722 -0.0218818 0.0419845 0.0219553 0.0310722 0.0113962 0.153596 0 -0.0119047 0.180721 -0.0783141 -0.0813067 -0.0829796 0.122082 0.185413
internal_weight=29797.8 27239.8 22832.9 9429.59 4406.93 8780.25 2557.94 3111.84 1441.36 2794.3 1379 1295.09 1260.65 649.338 13403.3 1116.58 1095.31 1082.49 810.898 10592.9
internal_count=94794 67632 40282 25864 27350 20992 27162 23859 9889 22918 9691 3491 9401 4872 14418 17273 17156 16951 2918 10327
is_linear=0
shrinkage=0.0878873


Tree=6
num_leaves=20
num_cat=0
split_feature=26 29 20 21 20 26 26 21 21 24 24 29 20 29 21 20 16 3 26
split_gain=6297.6 2899.96 1258.27 1192.85 995.775 746.496 711.86 620.695 333.265 314.246 304.193 169.266 129.664 154.039 95.2511 70.5258 21.8427 8.01467 8.00083
threshold=27.500000000000004 38.500000000000007 87.500000000000014 7055.5000000000009 40.500000000000007 21.500000000000004 34.500000000000007 4737.0000000000009 7364.0000000000009 1.0000000180025095e-35 1.0000000180025095e-35 45.500000000000007 5730.0000000000009 6.5000000000000009 4401.0000000000009 927.50000000000011 12111.000000000002 165.50000000000003 18.500000000000004
decision_type=2 2 2 2 2 2 2 2 2 2 2 2 2 2 2 2 2 2 2
left_child=5 2 7 4 6 14 -3 9 10 -2 11 -7 13 -4 16 -6 18 -18 -1
right_child=1 3 12 -5 15 8 -8 -9 -10 -11 -12 -13 -14 -15 -16 -17 17 -19 -20
leaf_value=-0.043747983365041862 -0.0015271579052302821 0.07371096908400937 0.066627979386424993 0.1840083609213678 0.14576765242480397 -0.051236707352347151 0.12413339008277172 0.18002916695398741 0.19271458937517261 0.1559276755585276 0.17007991416305249 0.018354859791511323 0.16511593407421329 0.1578622129666454 0.095120652564017361 0.17139968274376058 0 -0.083928309337826204 0.0080087308853913439
leaf_weight=20.219004161655903 2294.0239119157195 2806.4850065931678 520.13460100442171 3519.3223765641451 3817.0355238988996 357.54846816509962 11734.166194036603 152.5265646725893 66.254044324159622 86.535224728286266 70.030892960727215 959.51223899051547 461.53589244186878 230.88396739959717 10.174297362565992 2679.971166819334 10.158750042319296 971.10279551520944 32.58700830489397
leaf_count=315 21691 8881 2554 1736 3886 4059 25466 214 44 333 198 5588 535 518 15 1818 133 16473 337
internal_value=0.113086 0.124888 0.0524071 0.135889 0.127692 -0.0204533 0.114515 0.0167356 0.0200607 0.00502057 0.00950901 -0.000643089 0.125475 0.0977839 -0.0766481 0.156781 -0.0800687 -0.0831268 -0.0119521
internal_weight=30800.2 28302.6 3745.64 24557 21037.7 2497.59 14540.7 2533.09 1453.35 2380.56 1387.09 1317.06 1212.55 751.019 1044.24 6497.01 1034.07 981.262 52.806
internal_count=94794 67632 25845 41787 40051 27162 34347 22238 9889 22024 9845 9647 3607 3072 17273 5704 17258 16606 652
is_linear=0
shrinkage=0.0878873


Tree=7
num_leaves=26
num_cat=2
split_feature=30 2 27 27 27 20 5 5 39 20 19 20 20 19 2 9 12 6 20 6 5 27 11 20 5
split_gain=3955.75 2081.46 1784.96 2003.08 1362.92 1004.27 813.836 617.352 540.305 504.262 413.987 202.441 180.023 186.573 172.04 169.522 148.11 131.851 103.653 63.5284 76.1996 61.8668 27.2294 25.6207 19.3557
threshold=0 17907.000000000004 14331.500000000002 12258.500000000002 11062.500000000002 499.50000000000006 5.5000000000000009 1.0000000180025095e-35 1 17.500000000000004 62951.500000000007 235.50000000000003 117.50000000000001 31243.000000000004 17907.000000000004 1.0000000180025095e-35 67564.500000000015 1425.0000000000002 4739.5000000000009 1906.5000000000002 2.5000000000000004 3044.0000000000005 21074.500000000004 2704.5000000000005 1.5000000000000002
decision_type=1 2 2 2 2 2 2 2 1 2 2 2 2 2 2 2 2 2 2 2 2 2 2 2 2
left_child=2 8 3 9 6 14 10 11 12 15 -3 -6 13 -2 22 -1 -9 -16 23 20 -5 -8 -4 -7 -11
right_child=1 4 5 19 7 18 21 16 -10 24 -12 -13 -14 -15 17 -17 -18 -19 -20 -21 -22 -23 -24 -25 -26
leaf_value=-0.014202870937312925 0.10168684700500275 0.10259292253558884 0.0014570045322216854 0.080658518705032739 0.041973183675769084 0.06436988165001227 0.15671958127353758 0.099288702400454204 -0.086733926667364 0.042538721039603475 0.033559933638155633 0.12257371990508129 0.13074297314138703 0.011506320785549393 -0.020344499366839911 0.089798664288825769 0.14920701660391067 0.11759691103190764 0.13493222324447787 0.18535275671331983 0.11861079313237445 0.11568642088729653 -0.078797590529684658 0 0.10875264810055944
leaf_weight=1757.193284265697 215.13496657088399 1055.8007404431701 24.927565902471542 719.45269735902548 648.59075617790222 229.24151055514812 645.71743036806583 652.77020087838173 277.62273422256112 91.670436762273312 1930.4904467687011 417.97913727164268 155.44029443711042 842.39946760982275 1832.446015458554 113.90976676344872 13435.555831365287 39.130958892405033 300.34170466661453 135.7025261670351 3259.2536220513284 1838.1984730884433 478.25128448009491 46.304037556052208 333.72462473064661
leaf_count=12264 948 2202 214 2003 4980 1057 707 1230 5842 275 6089 868 230 7019 16535 272 12808 171 421 89 6007 3038 8679 239 607
internal_value=0.100865 0.12115 0.0527823 0.0787674 0.128398 -0.00367063 0.0901243 0.142083 0.0203308 0.0126977 0.0584926 0.0752032 0.0459189 0.0313982 -0.0291404 -0.00699085 0.147032 -0.0163224 0.0987483 0.11537 0.11218 0.127408 -0.0741984 0.0529584 0.0973107
internal_weight=31477.3 22115.7 9361.55 6410.91 20625.1 2950.64 5470.21 15154.9 1490.6 2296.5 2986.29 1066.57 1212.97 1057.53 2374.76 1871.1 14088.3 1871.58 575.887 4114.41 3978.71 2483.92 503.179 275.546 425.395
internal_count=94794 45961 48833 21517 31922 27316 12036 19886 14039 13418 8291 5848 8197 7967 25599 12536 14038 16706 1717 8099 8010 3745 8893 1296 882
cat_boundaries=0 1 2
cat_threshold=2 2
is_linear=0
shrinkage=0.0878873


Tree=8
num_leaves=19
num_cat=2
split_feature=29 17 17 30 27 5 27 27 2 30 2 6 4 6 2 17 20 17
split_gain=3877.33 1906.1 1610.07 1491.44 1515.17 715.614 686.804 1089.44 619.117 583.858 258.886 170.814 161.824 132.744 123.474 80.6126 42.1933 15.5375
threshold=39.500000000000007 4655.0000000000009 5750.9749999997739 0 11062.500000000002 5.5000000000000009 14331.500000000002 12258.500000000002 17907.000000000004 1 28890.000000000004 1846.0000000000002 1.0000000180025095e-35 1894.5000000000002 28890.000000000004 10520.500000000002 295.50000000000006 9718.5000000000018
decision_type=2 2 2 1 2 2 2 2 2 1 2 2 2 2 2 2 2 2
left_child=1 8 3 6 5 -5 7 -2 13 14 -6 -11 -8 16 -10 -3 -1 -4
right_child=2 15 17 4 10 -7 12 -9 9 11 -12 -13 -14 -15 -16 -17 -18 -19
leaf_value=-0.071838675385667988 0.014864169962146529 0.10980444814865355 0.13909846896282316 0.038045332431117629 0.093887758286882589 0.10452143463484329 0.093483821867029651 0.099455330971908382 0.018006661113065439 0.043050579525933393 0.13280169784662799 0.15922303738148794 -0.018697173042557965 0.13611188637590091 -0.037674142623692834 0.18023856879418607 0.022610086889732959 0.16358141339926516
leaf_weight=972.60303270444274 1796.4567609503865 546.05746838450432 1644.0523229390383 2797.1275418400764 1829.8114058896899 2328.4770276993513 94.812307108193636 3485.6172458156943 394.06991051509976 1483.4426704421639 9507.1660931780934 95.70363686978817 943.48764126375318 9.9010878130793554 1176.9480334669352 305.41372080147266 25.195730358362198 2528.696381509304
leaf_count=18738 9339 830 1157 8634 4173 3930 544 6640 3593 8510 9228 143 5931 28 12097 192 164 1024
internal_value=0.0908815 0.0197153 0.104074 0.09471 0.108689 0.0685398 0.0580647 0.0708821 -0.00490074 0.0142339 0.12669 0.0518035 -0.00688028 -0.0643786 -0.0234392 0.138268 -0.0687854 0.154574
internal_weight=31965 5009.34 26955.7 22783 16462.6 5125.6 6320.37 5282.07 4157.86 3150.16 11337 1579.15 1038.3 1007.7 1571.02 851.471 997.799 4172.75
internal_count=94895 44295 50600 48419 25965 12564 22454 15979 43273 24343 13401 8653 6475 18930 15690 1022 18902 2181
cat_boundaries=0 1 2
cat_threshold=2 2
is_linear=0
shrinkage=0.0878873


Tree=9
num_leaves=28
num_cat=4
split_feature=29 0 7 30 0 0 0 15 30 12 0 0 15 30 7 23 0 19 29 19 23 29 5 19 45 5 15
split_gain=3202.95 2280.66 1131.86 947.629 540.748 1143.13 588.53 324.387 315.955 290.596 237.887 401.31 178.413 166.179 112.081 105.99 92.4673 91.5036 91.4547 86.7409 43.7053 43.1618 34.271 22.2076 19.9928 19.771 7.1419
threshold=45.500000000000007 34985.500000000007 54463.000000000007 0 1925.0000000000002 6384.5000000000009 22860.000000000004 62957.500000000007 1 67564.500000000015 1925.0000000000002 6384.5000000000009 62957.500000000007 2 7396.0000000000009 68574.000000000015 6384.5000000000009 3740.0000000000005 17.500000000000004 62951.500000000007 68574.000000000015 27.500000000000004 4.5000000000000009 8023.5000000000009 3 2.5000000000000004 62957.500000000007
decision_type=2 2 2 1 2 2 2 2 1 2 2 2 2 1 2 2 2 2 2 2 2 2 2 2 1 2 2
left_child=2 4 7 19 -2 8 -7 14 -6 16 26 -12 15 18 22 -5 -4 -14 -9 23 -21 -16 -1 -3 -18 -15 -11
right_child=1 3 9 12 5 6 -8 13 -10 10 11 -13 17 25 21 -17 24 -19 -20 20 -22 -23 -24 -25 -26 -27 -28
leaf_value=-0.019687470540313997 0.14550295204628175 0 -0.077384557548853747 -0.0053848557279968529 0.0045051649525967878 0.12346416722572555 0.083685370186989447 -0.031432081411140025 0.069696233750194347 0.076779492276620911 -0.012877008669067378 0.070772394335329711 0.1211544107083686 0.036091413529097567 -0.080229135000681129 0.055291226123185877 0.033029406988479969 0.06979087958469142 0.018877308101009509 -0.049571851767608067 -0.011981741441226119 -0.021868049034910998 0.056519101021719809 0.043179512165581517 -0.034131322570626905 0.096804307187370153 0.16448614448586893
leaf_weight=123.0478615835309 2820.8769100233912 240.78748498111963 132.02297808602452 365.07613191753626 813.46140963211656 11004.711137730628 4199.619449455291 613.32696805894375 2062.9448772408068 73.890794597566128 527.47187416628003 2422.6430256962776 351.56117084622383 151.65369255468249 727.34889548644423 507.18033980578184 127.23131353035569 2678.9259843304753 479.45475706458092 488.39045175164938 541.0978174097836 150.172611951828 51.264287658035755 140.47686206549406 26.482742127031088 109.85321905091405 172.14522545784712
leaf_count=1837 1866 1098 1260 1381 3564 12106 9625 6568 4339 299 4098 10557 397 1065 15841 1493 757 5177 2694 2808 2792 1426 329 652 233 317 316
internal_value=0.0825749 0.0957312 0.0238402 0.0440254 0.108816 0.102952 0.112597 -0.0223249 0.0515087 0.0558031 0.0634149 0.0557048 0.0662901 0.00592435 -0.0585929 0.0298381 -0.0270143 0.076457 -0.00907673 -0.0173653 -0.0306341 -0.0712026 0.00361016 0.0173455 0.0172429 0.0669084 0.145665
internal_weight=32103.1 26215.1 5888.01 5313.5 20901.6 18080.7 15204.3 2406.12 2876.41 3481.89 3196.15 2950.11 3902.74 1354.29 1051.83 872.256 285.737 3030.49 1092.78 1410.75 1029.49 877.522 174.312 381.264 153.714 261.507 246.036
internal_count=94895 47298 47597 15798 31500 29634 21731 30077 7903 17520 15270 14655 8448 10644 19433 2874 2250 5574 9262 7350 5600 17267 2166 1750 990 1382 615
cat_boundaries=0 1 2 3 4
cat_threshold=2 2 2 1
is_linear=0
shrinkage=0.0878873


Tree=10
num_leaves=23
num_cat=1
split_feature=26 14 8 20 19 14 26 26 42 20 24 19 20 24 19 29 26 19 26 14 20 20
split_gain=3418.32 1595.15 1165.18 792.251 582.141 521.268 438.621 173.292 123.373 122.991 102.22 81.8302 76.4262 70.0673 64.718 58.6365 39.7646 37.2998 28.6247 25.0327 4.81787 11.9324
threshold=27.500000000000004 46.500000000000007 1.0000000180025095e-35 1495.0000000000002 3740.0000000000005 297.00000000000006 23.500000000000004 49.500000000000007 0 11.500000000000002 1.0000000180025095e-35 31243.000000000004 994.50000000000011 1.0000000180025095e-35 31243.000000000004 45.500000000000007 34.500000000000007 3089.5000000000005 19.500000000000004 27.500000000000004 5750.9749999997739 1904.5000000000002
decision_type=2 2 2 2 2 2 2 2 1 2 2 2 2 2 2 2 2 2 2 2 2 2
left_child=6 3 4 7 17 -6 10 11 -9 13 14 -2 16 15 18 -8 -4 -3 -1 -16 21 -5
right_child=1 2 12 20 5 -7 9 8 -10 -11 -12 -13 -14 -15 19 -17 -18 -19 -20 -21 -22 -23
leaf_value=-0.054664287723677082 0.019485209803943634 0.099748610950934666 0.084969387852080761 0.11837383188878822 0.057218913513017 0.091434866634854228 -0.043009548094934881 0.022261220217798 -0.063367528163363496 0.080685811008113006 0.068852289270751904 -0.050099865216191572 0.12840742883928732 0.085725759656418141 -0.088327267918043503 0.006877661340597461 0.11190921733347048 0.1344925646144759 0.031352731695481403 -0.054651550689488855 0.11208561984758787 0.058324811290712486
leaf_weight=29.643496941775084 149.71653399989009 833.2755039781332 903.65833126753569 67.994604498147964 9221.9088212624192 5746.8316750377417 217.58393305167556 1621.9167563170195 124.4054528363049 163.51373692974448 31.202512171119452 577.08529603481293 3322.7036109119654 56.188278123736382 484.74577892944217 791.38805096596479 5196.6423220261931 1195.4541729837656 71.951931979507208 632.69231826812029 482.37245909869671 263.54081477969885
leaf_count=510 858 1364 1192 196 24334 9747 2401 12615 1458 334 197 6361 2187 138 12550 3888 4953 1188 518 6575 539 792
internal_value=0.075143 0.0834166 0.0906042 0.0253793 0.0766514 0.0704607 -0.0237642 0.00030111 0.0154496 0.0132487 -0.060141 -0.0351694 0.115567 0.00154823 -0.0645626 -0.00401643 0.108204 0.121267 0 -0.0705926 0.0997091 0.0764395
internal_weight=32186.4 29707.5 26420.5 3287.03 16997.5 14968.7 2478.91 2473.12 1746.32 1228.67 1250.24 726.802 9423 1065.16 1219.03 1008.97 6100.3 2028.73 101.595 1117.44 813.908 331.535
internal_count=94895 67784 44965 22819 36633 34081 27111 21292 14073 6761 20350 7219 8332 6427 20153 6289 6145 2552 1028 19125 1527 988
cat_boundaries=0 1
cat_threshold=1
is_linear=0
shrinkage=0.0878873


Tree=11
num_leaves=24
num_cat=0
split_feature=0 14 8 2 8 9 12 2 11 2 0 4 19 14 1 11 11 2 14 0 0 0 19
split_gain=2150.26 1901.73 779.368 702.071 677.069 467.313 464.9 351.493 309.731 295.554 177.544 139.616 139.56 128.489 109.946 92.7745 72.2248 42.4269 43.1235 41.5121 21.8464 7.01381 4.96412
threshold=34985.500000000007 41.500000000000007 1.0000000180025095e-35 17907.000000000004 1.0000000180025095e-35 1.0000000180025095e-35 67564.500000000015 44134.500000000007 50367.500000000007 17907.000000000004 6384.5000000000009 44.500000000000007 3740.0000000000005 48.500000000000007 68574.000000000015 6986.5000000000009 50367.500000000007 44134.500000000007 215.50000000000003 16050.500000000002 22860.000000000004 6384.5000000000009 3089.5000000000005
decision_type=2 2 2 2 2 2 2 2 2 2 2 2 2 2 2 2 2 2 2 2 2 2 2
left_child=1 4 3 11 9 7 -5 12 15 19 -11 -3 22 -10 -14 -9 21 18 -4 -1 -18 -6 -2
right_child=5 2 17 6 16 -7 -8 8 13 10 -12 -13 14 -15 -16 -17 20 -19 -20 -21 -22 -23 -24
leaf_value=-0.081727152050206003 0.029672790024657014 -0.002814465757769182 0.084618943518793024 0.026387634615986109 0.053609172746194214 0.088482094069656292 0.087016038562110182 0.030624672249435162 -0.032266420326382196 -0.02856264854678349 0.035129185882926642 0.085542756500854841 -0.029798855715005554 0.055198278538681013 0.0054124369462886643 -0.038173920118288879 0.034498660216530828 0.11738506663735809 0.11056047229621699 -0.0031845074027742281 -0.028444615249488242 0.091958776501751618 0.076832795015206512
leaf_weight=468.94279413297772 94.052878081798553 983.0031499825418 1427.9287939853966 1101.3002844378352 187.86473405361176 778.12375674024224 11944.348357453942 203.72319885343313 121.99285720288754 646.17591866105795 672.97165094688535 143.8238908238709 1266.5900565348566 2399.7345996871591 1432.4589528664947 456.94904733449221 145.91781286895275 4926.2696634158492 1955.2957861348987 70.555759608745575 38.587232358753681 568.91587078198791 115.72834814339876
leaf_count=12902 330 6629 1964 3231 599 1224 21184 776 767 6737 5330 436 8055 4972 8002 2765 604 3359 1777 1425 222 1354 251
internal_value=0.0686588 0.0805097 0.0890138 0.0762164 0.0119825 0.024907 0.0819631 0.0165214 0.0366475 -0.0186464 0.00368925 0.00915731 -0.00545132 0.0506522 -0.0110538 -0.0162067 0.0721603 0.110614 0.100156 -0.0724857 0.0183341 0.0841801 0.0608071
internal_weight=32151.3 25281.9 22482 14172.5 2799.93 6869.35 13045.6 6091.23 3182.4 1858.65 1319.15 1126.83 2908.83 2521.73 2699.05 660.672 941.286 8309.49 3383.22 539.499 184.505 756.781 209.781
internal_count=94895 67753 38580 31480 29173 27142 24415 25918 9280 26394 12067 7065 16638 5739 16057 3541 2779 7100 3741 14327 826 1953 581
is_linear=0
shrinkage=0.0878873


Tree=12
num_leaves=23
num_cat=2
split_feature=30 2 20 29 20 6 11 6 29 5 15 11 2 29 29 42 20 11 5 5 20 18
split_gain=2296.62 1125.16 748.57 758.938 739.151 535.036 443.538 301.573 270.372 159.364 141.998 301.766 111.924 81.8257 77.1842 64.525 62.3477 55.8769 41.2574 35.2122 29.0261 9.73447
threshold=0 17907.000000000004 994.50000000000011 39.500000000000007 1.0000000180025095e-35 1881.5000000000002 50367.500000000007 1551.5000000000002 31.500000000000004 5.5000000000000009 30288.500000000004 35654.000000000007 8641.5000000000018 12.500000000000002 7.5000000000000009 1 5275.0000000000009 21074.500000000004 4.5000000000000009 2.5000000000000004 93.500000000000014 213.50000000000003
decision_type=1 2 2 2 2 2 2 2 2 2 2 2 2 2 2 1 2 2 2 2 2 2
left_child=2 8 3 10 5 6 -3 9 17 -5 11 -1 15 -12 16 -10 -6 -2 -4 -14 -16 -19
right_child=1 4 18 7 14 -7 -8 -9 12 -11 13 -13 19 -15 20 -17 -18 21 -20 -21 -22 -23
leaf_value=-0.054103759980326967 0.078518270696249115 0.035852803653230736 0.071411220679284154 0.014276231516614328 0.039184634711284687 0.13663487412217823 0.075429352088363669 0.12769594919335114 0.054159049569417327 0.04271173178882369 -0.064158295186250061 0.06792143531100521 0.021312545608798399 -0.016409519777032443 0.092514767050265706 -0.039859759202688187 0.10477298224824304 0 0.11106286936828441 -0.032392969189141523 0.11329636774583493 -0.06617260910886992
leaf_weight=313.43389667198062 7.3526882380247107 2957.4579728469253 784.7300531975925 3368.5516343303025 323.31976745277643 903.82227490842342 9427.620104663074 229.59407826140523 656.18940046057105 2883.7514422871172 832.98434325680137 282.47479085624218 130.82817824184895 466.7005518078804 1419.2818717509508 45.98079976066947 222.38081119954586 7.0979438889771691 516.8176656961441 232.28669287264347 5317.1555280983448 375.13514218479395
leaf_count=3994 33 9627 1606 13545 1054 668 15461 367 2327 8191 14634 2136 797 3854 1372 247 195 181 459 1580 3574 8851
internal_value=0.0626732 0.0783578 0.0268751 0.0171023 0.0836374 0.071046 0.0660649 0.0314242 0.00336558 0.0275229 -0.0315382 0.00340261 0.0265137 -0.047685 0.106365 0.0467665 0.0687225 -0.057623 0.0885574 -0.0120051 0.109195 -0.0641222
internal_weight=31704.9 22025.9 9679.04 8377.49 20571 13288.9 12385.1 6481.9 1454.87 6252.3 1895.59 595.909 1065.29 1299.68 7282.14 702.17 545.701 389.586 1301.55 363.115 6736.44 382.233
internal_count=94753 45967 48786 46721 31951 25756 25088 22103 14016 21736 24618 6130 4951 18488 6195 2574 1249 9065 2065 2377 4946 9032
cat_boundaries=0 1 2
cat_threshold=2 1
is_linear=0
shrinkage=0.0878873


Tree=13
num_leaves=16
num_cat=1
split_feature=26 21 31 8 14 24 24 21 8 14 24 21 26 14 26
split_gain=2349.99 1854.73 1492.99 755.909 477.33 446.037 220.044 206.487 177.937 124.935 104.55 64.1463 46.1638 28.4062 14.1526
threshold=24.500000000000004 7055.5000000000009 0 1.0000000180025095e-35 142.50000000000003 1.0000000180025095e-35 1.0000000180025095e-35 7280.0000000000009 1.0000000180025095e-35 95.000000000000014 1.0000000180025095e-35 9000.0000000000018 23.500000000000004 53.000000000000007 18.500000000000004
decision_type=2 2 1 2 2 2 2 2 2 2 2 2 2 2 2
left_child=7 2 4 5 8 -4 -6 10 -2 -5 12 -3 14 -14 -1
right_child=1 11 3 9 6 -7 -8 -9 -10 -11 -12 -13 13 -15 -16
leaf_value=-0.086254768856966382 -0.017237206675370449 0.098660989933831281 0.051082302443882011 0.070251926391886682 0.035786631962862712 0.10991705665663165 0.11647744592897308 0.13039202357384727 0.027298895786463662 0.10308713447327424 0.056949518073669561 0.13243073313152157 0.020092024549177665 -0.041112080996815036 -0.057030270816336145
leaf_weight=447.92308706790209 2135.6169545911252 995.86519758403301 11204.270225830376 1430.7356398701668 5048.8413419611752 1108.2323649898171 268.94589631259441 31.09544050693512 1004.520550109446 4404.4818054996431 44.317643046379089 2472.5474996119738 64.068392932415009 176.82826461642981 661.54661512002349
leaf_count=12849 18520 833 26569 2290 14760 1146 335 27 3522 3352 243 1164 575 1113 7455
internal_value=0.057606 0.0628418 0.0548762 0.0690955 0.0242528 0.0565394 0.0402635 -0.0520673 -0.00281099 0.0953065 -0.0577863 0.123323 -0.0624231 -0.0231892 -0.0701811
internal_weight=31499.8 30074.1 26605.6 18147.7 8457.92 12312.5 5317.79 1425.78 3140.14 5835.22 1394.68 3468.41 1350.37 240.897 1109.47
internal_count=94753 72491 70494 33357 37137 27715 15095 22262 22042 5642 22235 1997 21992 1688 20304
cat_boundaries=0 1
cat_threshold=1
is_linear=0
shrinkage=0.0878873


Tree=14
num_leaves=26
num_cat=1
split_feature=26 30 27 26 27 27 27 27 14 24 27 19 27 13 26 26 24 2 16 7 7 16 19 29 14
split_gain=2052.14 1252.6 1051.24 553.864 537.26 420.227 390.692 707.75 302.919 217.827 175.838 163.464 160.153 131.035 130.497 119.772 95.8232 77.8972 64.096 64.0095 57.3745 44.5776 45.9565 26.865 24.9518
threshold=30.500000000000004 0 11062.500000000002 23.500000000000004 14331.500000000002 3044.0000000000005 14331.500000000002 12258.500000000002 297.00000000000006 1.0000000180025095e-35 14331.500000000002 3740.0000000000005 12258.500000000002 12949.500000000002 49.500000000000007 34.500000000000007 1.0000000180025095e-35 28890.000000000004 61909.000000000007 54463.000000000007 7396.0000000000009 12111.000000000002 31243.000000000004 34.500000000000007 191.00000000000003
decision_type=2 1 2 2 2 2 2 2 2 2 2 2 2 2 2 2 2 2 2 2 2 2 2 2 2
left_child=3 6 5 16 12 24 7 11 -7 10 13 -2 -4 -5 18 -6 21 -9 -8 -16 -12 23 -23 -1 -3
right_child=1 2 4 9 15 8 14 17 -10 -11 20 -13 -14 -15 19 -17 -18 -19 -20 -21 -22 22 -24 -25 -26
leaf_value=-0.052946386386350366 0.0919223209203546 0.054016900781159012 0.074133665887985881 0.025600556906471478 -0.032843227654317721 0.010482954212473155 -0.045250021064799778 0.090630230908412268 0.058525362777950556 0.10280525277635047 0.046819838458717254 -0.0055890480810537558 0.10098505023679884 -0.033695004467602367 -0.0014120464697284201 0.052804817068741142 0.056594892803790701 0.058833339856023049 0 0.035284617161974528 -0.055479236312520386 -0.002717724222139669 -0.073942773339709042 0.036301595494472642 0.10032624369946783
leaf_weight=27.712872603908181 127.64034986868501 216.81729451939464 2584.4411996044219 2029.8896257206798 118.12879917025566 2733.5393483489752 458.19851575791836 932.27974404022098 1626.9798855781555 186.94184362143278 31.932219550013542 1790.3474512025714 8759.1563459262252 316.42240439727902 618.75791275128722 2260.8381277658045 39.412057381123304 2846.9205576479435 499.54446191713214 822.50802708044648 363.71815158054233 88.576658042147756 902.79421190358698 49.852095358073711 791.99652756750584
leaf_count=521 300 413 3662 6596 525 7189 3371 1258 2373 289 310 8316 6856 1720 5264 7973 224 5060 3468 5172 3282 880 18545 376 810
internal_value=0.0530751 0.0617538 0.0740554 -0.00529342 0.0869871 0.0407823 0.032614 0.0451175 0.0286356 0.0146642 0.00797725 0.00140027 0.0950093 0.0172812 0.00267101 0.0482147 -0.0578287 0.0671122 -0.0220905 0.0194345 -0.0448819 -0.0631333 -0.0680794 0 0.091699
internal_weight=31225.3 27188.1 19091.9 4037.25 13722.6 5369.33 8096.2 5697.19 4360.52 2928.9 2741.96 1917.99 11343.6 2346.31 2399.01 2378.97 1108.35 3779.2 957.743 1441.27 395.65 1068.94 991.371 77.565 1008.81
internal_count=94753 62010 29801 32743 19016 10785 32209 14934 9562 12197 11908 8616 10518 8316 17275 8498 20546 6318 6839 10436 3592 20322 19425 897 1223
cat_boundaries=0 1
cat_threshold=2
is_linear=0
shrinkage=0.0878873


Tree=15
num_leaves=19
num_cat=2
split_feature=17 27 27 27 8 30 7 21 13 9 12 7 30 17 14 17 14 8
split_gain=2196.54 1493.62 1944.98 694.089 559.469 507.766 329.122 208.978 151.162 138.333 129.463 99.631 107.873 82.9532 47.4872 29.1753 25.3433 15.0608
threshold=4655.0000000000009 14331.500000000002 12258.500000000002 11845.000000000002 1.0000000180025095e-35 0 54463.000000000007 9000.0000000000018 2942.5000000000005 1.0000000180025095e-35 67564.500000000015 26223.000000000004 1 -1875.4999999999998 103.00000000000001 50.500000000000007 29.500000000000004 1.0000000180025095e-35
decision_type=2 2 2 2 2 1 2 2 2 2 2 2 1 2 2 2 2 2
left_child=1 2 3 4 -1 8 11 16 -4 10 -8 15 -13 -5 -7 -3 -2 -11
right_child=7 6 5 13 -6 14 9 -9 -10 17 -12 12 -14 -15 -16 -17 -18 -19
leaf_value=0.017468945544716286 0.058201814282542362 -0.065994513660439319 -0.0065359946878252541 0.080009754683946735 0.069453824526443497 0.070583663201849625 -0.043631655351060193 0.12435681416177478 0.053444283313892664 -0.088935054766107843 0.023927660326797075 -0.029696607831540871 0.03779008495963513 -0.054769966433859646 0.092268201768052269 0 0.08982047312651073 -0.0078002817685707678
leaf_weight=7466.0951519589871 441.12581095099449 615.29357496090233 342.80514473840594 21.257097367197275 2038.4078747555614 1449.0508189201355 222.63762673735619 2329.4854260236025 3453.5320928711444 88.555408246815205 2466.0267153270543 1048.7301417291164 202.79465966299176 910.99948358908296 5862.7045186944306 46.992471762001514 1835.3913349956274 37.709835395216942
leaf_count=24194 694 16183 1018 57 2700 1943 1834 1182 6686 569 12849 9285 879 7305 5289 307 1648 131
internal_value=0.0490212 0.0391406 0.0489533 0.0216137 0.0287514 0.0745419 -0.00550487 0.104982 0.0479284 0.013504 0.0179804 -0.0335354 -0.0181453 -0.0500511 0.0881792 -0.060999 0.0842886 -0.0707744
internal_weight=30879.6 26273.6 21544.9 10436.8 9504.5 11108.1 4728.74 4606 3796.34 2814.93 2688.66 1913.81 1251.52 932.257 7311.76 662.286 2276.52 126.265
internal_count=94753 91229 49192 34256 26894 14936 42037 3524 7704 15383 14683 26654 10164 7362 7232 16490 2342 700
cat_boundaries=0 1 2
cat_threshold=2 2
is_linear=0
shrinkage=0.0878873


Tree=16
num_leaves=16
num_cat=1
split_feature=17 26 0 21 27 30 17 26 26 21 0 26 26 27 17
split_gain=2041.65 1513.59 1376.18 741.005 641.602 620.745 396.55 378.468 216.012 178.996 138.367 55.3855 16.3504 12.944 5.56292
threshold=4655.0000000000009 30.500000000000004 34985.500000000007 1.0000000180025095e-35 14331.500000000002 0 -1886.4999999999998 23.500000000000004 39.500000000000007 9000.0000000000018 34985.500000000007 34.500000000000007 18.500000000000004 5241.5000000000009 8043.0000000000009
decision_type=2 2 2 2 2 1 2 2 2 2 2 2 2 2 2
left_child=1 6 3 4 -3 11 -1 12 -7 14 -9 -4 -8 -5 -2
right_child=9 2 5 13 -6 8 7 10 -10 -11 -12 -13 -14 -15 -16
leaf_value=0.12587497108739543 0.08402439581979726 0.06719366876420603 -0.083931678682927391 -0.026763351397489955 0.01942070967738125 -0.0061727517203353762 -0.084692242471369861 0.0089923476713184066 0.040534402967423985 0.11924642116666996 -0.036866354230565085 -0.031341866271882936 -0.05290749548022123 -0.10914345847347341 0.050390568566232891
leaf_weight=133.1102052256465 2142.708099976182 14378.74869017303 179.76129806786776 42.913265734910965 2602.1914081089199 1064.5820550695062 376.64539668150246 1948.1895600613207 2560.5247393958271 2266.1861800551414 668.44370462559164 1467.8092678934336 599.05997730605304 176.37789671123028 182.8494086265564
leaf_count=192 2171 22280 1324 120 15821 2964 12885 7908 5829 1197 3995 9395 7405 820 221
internal_value=0.0467087 0.0371699 0.0457706 0.0578056 0.0599187 0.0063877 -0.0145894 -0.020415 0.0267506 0.100744 -0.00273364 -0.0380294 -0.0666798 -0.0974076 0.0818873
internal_weight=30790.1 26198.4 22472.9 17200.2 16980.9 5272.68 3725.45 3592.34 3625.11 4591.74 2616.63 1647.57 975.705 219.291 2325.56
internal_count=94527 90938 58553 39041 38101 19512 32385 32193 8793 3589 11903 10719 20290 940 2392
cat_boundaries=0 1
cat_threshold=2
is_linear=0
shrinkage=0.0878873


Tree=17
num_leaves=17
num_cat=3
split_feature=17 26 0 9 30 30 24 26 26 17 0 26 17 30 26 8
split_gain=1846.51 1268.24 1221.84 659.488 536.403 523.899 339.084 243.63 212.429 175.253 58.8249 55.1947 30.9866 20.6616 20.2343 6.7075
threshold=4655.0000000000009 29.500000000000004 34985.500000000007 1.0000000180025095e-35 0 1 1.0000000180025095e-35 23.500000000000004 39.500000000000007 9718.5000000000018 34985.500000000007 34.500000000000007 -1886.4999999999998 2 18.500000000000004 1.0000000180025095e-35
decision_type=2 2 2 2 1 1 2 2 2 2 2 2 2 1 2 2
left_child=1 6 3 4 -3 11 7 14 -7 13 -9 -4 -8 -2 -1 -5
right_child=9 2 5 15 -6 8 12 10 -10 -11 -12 -13 -14 -15 -16 -17
leaf_value=-0.083695946661335341 0.057374642651959816 0.031710609902574849 -0.077996824238217299 -0.1027784120350563 0.065145433305621434 -0.0081103649494470853 0.11757486252928524 1.1608430253892015e-05 0.036928127504734967 0.11409427941209985 -0.033994256435578581 -0.029111234911457392 0.032753617355753765 0.083201887883374737 -0.049206618736606207 -0.030668769704185195
leaf_weight=344.18135509453714 621.66765150427818 5557.7455304153264 213.21001349017024 178.0782554782927 11760.213749602437 1153.8969236165285 113.39217297360301 1462.8016411047429 2564.8610524237156 2192.2337634712458 511.27929934486747 1443.7248217537999 86.300744030624628 1611.4424775093794 564.31240913458169 45.01209894567728
leaf_count=12824 876 20586 1655 826 18730 3276 168 6597 5829 1231 3320 9395 284 1482 7306 142
internal_value=0.0431467 0.0341527 0.0412738 0.0525015 0.0544744 0.00452451 -0.0186177 -0.0265334 0.0228804 0.0956004 -0.00881054 -0.0362856 0.0876199 0.0766199 -0.0638546 -0.0926966
internal_weight=30424.4 25999 22916.7 17541 17318 5375.69 3082.27 2882.57 3718.76 4425.34 1974.08 1656.93 199.693 2233.11 908.494 223.09
internal_count=94527 90938 60439 40284 39316 20155 30499 30047 9105 3589 9917 11050 452 2358 20130 968
cat_boundaries=0 1 2 3
cat_threshold=2 2 2
is_linear=0
shrinkage=0.0878873


Tree=18
num_leaves=25
num_cat=0
split_feature=20 29 0 27 0 6 0 6 27 4 7 12 20 0 20 7 7 29 7 0 0 20 0 29
split_gain=1297.97 1088.1 772.213 668.548 379.007 369.721 305.698 302.454 256.054 216.11 198.533 126.379 124.551 81.41 76.7798 75.9955 59.051 52.3996 43.1665 36.6144 32.8458 36.5399 9.02447 1.69098
threshold=48.500000000000007 48.500000000000007 22860.000000000004 11062.500000000002 16050.500000000002 1846.0000000000002 1925.0000000000002 1881.5000000000002 14331.500000000002 32.500000000000007 26223.000000000004 67564.500000000015 1550.5000000000002 2599.0000000000005 994.50000000000011 54463.000000000007 54463.000000000007 51.500000000000007 7396.0000000000009 22860.000000000004 34985.500000000007 4739.5000000000009 6384.5000000000009 44.500000000000007
decision_type=2 2 2 2 2 2 2 2 2 2 2 2 2 2 2 2 2 2 2 2 2 2 2 2
left_child=1 5 3 4 -3 10 -5 9 14 -4 18 -12 13 -10 15 17 -15 -2 -1 -17 22 -22 -14 -16
right_child=8 2 7 6 -6 -7 -8 -9 12 -11 11 -13 20 16 23 19 -18 -19 -20 -21 21 -23 -24 -25
leaf_value=-0.010263470890848926 -0.0043512424741898236 -0.015146947460095971 0.02788953117054483 0.10672436084924648 0.06695224403653266 0.11895678563922576 0.058711391064297645 0.096531264190175714 0.10460469860484675 -0.0025098286163512322 -0.049530171040209924 0.00075560304552796669 0.037050786710123865 -0.02960014322072502 0.061322632968633037 0.084272394618269256 0.021566678492428892 0.0533956361565361 -0.064531102110878966 0.056654428601391284 -0.020574142954747 0.050479329310007912 0.076603905835916739 0.093211815321055339
leaf_weight=167.07756392844021 125.87734882906079 1410.631430901587 3821.8022848181427 1268.8851091004908 607.25002231448889 153.07001928240061 6585.1142933182418 343.9125849828124 51.814530089497566 3370.3604123666883 418.981111433357 3343.8131785318255 142.45083125680685 254.44725525565445 207.21456289291382 1959.9099750965834 469.31619478017092 826.17597241699696 603.70826618373394 773.04175797104836 71.060286723077297 129.4836150854826 561.6001214645803 2394.5137569755316
leaf_count=2270 381 4150 9337 981 917 256 11162 372 93 12368 3831 20709 268 1441 300 1696 1352 1096 17459 960 289 187 815 1837
internal_value=0.0398639 0.0288346 0.0389509 0.055128 0.00970451 -0.00866857 0.0667101 0.0176418 0.0702901 0.0136189 -0.0134495 -0.0049286 0.0388296 0.012024 0.078524 0.0691374 0.00284361 0.0454386 -0.0536648 0.0769573 0.060826 0.0239561 0.0700792 0.0911902
internal_weight=30061.5 22094.6 17408 9871.88 2017.88 4686.65 7854 7536.08 7966.91 7192.16 4533.58 3762.79 1680.17 775.578 6286.73 3685.01 723.763 952.053 770.786 2732.95 904.595 200.544 704.051 2601.73
internal_count=94527 83812 39287 17210 5067 44525 12143 22077 10715 21705 44269 24540 4445 2886 6270 4133 2793 1477 19729 2656 1559 476 1083 2137
is_linear=0
shrinkage=0.0878873


Tree=19
num_leaves=16
num_cat=2
split_feature=17 24 5 27 27 30 27 27 20 21 17 20 17 30 17
split_gain=1654.69 1030.46 906.314 729.834 853.189 359.199 251.541 224.811 152.203 149.717 42.0159 134.124 57.0195 25.3435 56.5747
threshold=5750.9749999997739 1.0000000180025095e-35 5.5000000000000009 8422.0000000000018 14331.500000000002 0 12258.500000000002 4058.0000000000005 313.00000000000006 9000.0000000000018 -1901.4999999999998 69.500000000000014 -1886.4999999999998 1 5753.9749999997739
decision_type=2 2 2 2 2 1 2 2 2 2 2 2 2 1 2
left_child=1 2 3 7 -5 8 -7 -1 -4 13 -3 12 -12 14 -2
right_child=9 10 5 4 -6 6 -8 -9 -10 -11 11 -13 -14 -15 -16
leaf_value=-0.0139509206336436 0.065615049240292073 0.10647817330505993 0.013055787653567354 0.032616086595744845 -0.01935030494068464 0.038225744034223387 0.074657092200478614 -0.071711808164341209 0.068239370122896492 0.10926093365240486 0.076453621392644153 0.10100605233653358 0.015461737053274286 0.078611219887620584 -0.00067297602684338205
leaf_weight=1448.6344098225236 346.23066976666451 840.72216880694032 2763.7106080129743 9019.2159049306065 3322.2424856238067 2880.8238257151097 3247.0856527909636 824.77971921861172 442.57149955630302 1975.1460217982531 191.53371844440699 676.56078101694584 348.863351367414 1239.591924726963 121.95702281594276
leaf_count=5228 407 831 9960 22846 36145 5929 4078 4338 559 1197 196 503 910 1149 251
internal_value=0.0369012 0.0290371 0.0238522 0.0101374 0.018591 0.0452346 0.0577294 -0.0354096 0.0210782 0.0919794 0.088576 0.0747261 0.0392661 0.0709758 0.0481322
internal_weight=29689.7 26006.7 23949.1 14614.9 12341.5 9334.19 6127.91 2273.41 3206.28 3682.93 2057.68 1216.96 540.397 1707.78 468.188
internal_count=94527 91523 89083 68557 58991 20526 10007 9566 10519 3004 2440 1609 1106 1807 658
cat_boundaries=0 1 2
cat_threshold=2 2
is_linear=0
shrinkage=0.0878873


Tree=20
num_leaves=15
num_cat=0
split_feature=21 0 20 0 0 17 19 25 20 0 0 19 21 17
split_gain=1584.97 1181.25 614.073 562.735 1219.74 416.714 380.912 325.857 228.008 103.258 151.09 56.1582 31.5533 10.5507
threshold=7364.0000000000009 22860.000000000004 12.500000000000002 6384.5000000000009 1925.0000000000002 -1776.4999999999998 3740.0000000000005 1.0000000180025095e-35 49.500000000000007 1925.0000000000002 6384.5000000000009 3089.5000000000005 10041.000000000002 7799.9749999997739
decision_type=2 2 2 2 2 2 2 2 2 2 2 2 2 2
left_child=1 2 3 4 -1 -3 11 -5 -8 -4 -11 -7 13 -2
right_child=12 5 9 7 -6 6 8 -9 -10 10 -12 -13 -14 -15
leaf_value=0.076082754046842269 0.085031548575812507 0.084340368989353862 0.0977932653516487 -0.078525854669687936 -0.025053681071770997 0.02374724364718498 -0.012531717383261141 0.048796977698929128 0.022580917888511021 0.018426259444887023 0.067521635204949915 0.069762343382359149 0.10714315637072799 0.044207189959733058
leaf_weight=1289.2621292602271 406.78435064852238 449.99208803474903 766.27132373303175 143.64696796424687 3113.0740360692143 400.58548822812736 7724.8387709017843 6182.1219546291977 1731.5551241803914 603.05042633973062 3489.5008035767823 559.7773724347353 1804.5295787006617 175.24996392428875
leaf_count=2668 331 555 606 7866 18395 1077 36405 14767 4036 1329 4342 866 1135 222
internal_value=0.0315131 0.0252704 0.040767 0.0288965 0.00464658 0.00298284 -0.000617514 0.0456629 -0.00603745 0.0667262 0.0604727 0.0516247 0.0999462 0.0748172
internal_weight=28840.2 26453.7 15586.9 10728.1 4402.34 10866.7 10416.8 6325.77 9456.39 4858.82 4092.55 960.363 2386.56 582.034
internal_count=94600 92912 49973 43696 21063 42939 42384 22633 40441 6277 5671 1943 1688 553
is_linear=0
shrinkage=0.0878873


Tree=21
num_leaves=30
num_cat=2
split_feature=26 0 0 0 13 0 19 0 44 19 0 0 45 26 26 13 0 19 16 22 19 26 19 13 13 0 0 0 13
split_gain=1195 822.357 355.197 1242 351.058 278.886 198.044 184.142 153.638 136.839 133.493 887.002 128.132 124.826 99.9325 74.4761 97.0486 57.6694 82.6761 49.3684 48.213 46.5797 43.7978 33.1443 26.5496 13.8587 9.36002 4.86645 3.86715
threshold=33.500000000000007 22860.000000000004 6384.5000000000009 1925.0000000000002 7557.5000000000009 5731.0000000000009 3740.0000000000005 22860.000000000004 0 8023.5000000000009 6473.5000000000009 16050.500000000002 1 27.500000000000004 19.500000000000004 8615.0000000000018 22860.000000000004 62951.500000000007 61909.000000000007 1.0000000180025095e-35 3089.5000000000005 21.500000000000004 31243.000000000004 8615.0000000000018 2942.5000000000005 5731.0000000000009 34985.500000000007 2599.0000000000005 8615.0000000000018
decision_type=2 2 2 2 2 2 2 2 1 2 2 2 1 2 2 2 2 2 2 2 2 2 2 2 2 2 2 2 2
left_child=4 2 3 12 7 -5 20 13 9 -8 23 -12 -2 21 27 25 -17 24 -19 -15 26 -1 -10 -4 -9 -16 -3 -6 -29
right_child=1 6 10 5 14 -7 8 17 22 -11 11 -13 -14 19 15 16 -18 18 -20 -21 -22 -23 -24 -25 -26 -27 -28 28 -30
leaf_value=-0.071916589224541902 0.091627202290620963 0.039856302776577042 0.071852336249547816 0.011933994860156652 0 -0.049932292771839026 -0.02499311590963503 -0.033970584355251972 0.012338113309548766 0.020232042256978246 -0.074361466693583247 0.063661683798961421 0.015863556684008323 0.043425365175356861 -0.0055161446643769516 0.005457153887910334 -0.038250434010093703 -0.00027398126857737948 -0.047524190380784107 -0.019632323317175248 0.07135985480505784 0.0012526250644136255 -0.036214658823550551 0.10015527284335304 0.02537066533612262 -0.076174197347235253 0.0079046620267667032 0 -0.085367132704342527
leaf_weight=60.018973473459482 1904.8660129494965 201.8566814661026 2163.703813739121 2262.6015224400908 12.089766955003141 730.9089980609715 539.56988028809428 51.286879753693938 168.01001118123531 6738.2529263105243 369.96620404347777 5421.2996223196387 210.41292828321457 1467.3906841501594 38.697491187602282 704.40532900579274 826.86581340059638 624.44155602529645 538.15126394852996 85.714443944394588 580.25851041823626 527.98250285722315 573.17653619870543 652.71110739186406 333.15606087818742 231.05873871780932 168.98733441345394 10.41468572616577 282.15453091450036
leaf_count=1158 2296 370 2417 7542 289 4540 1789 291 491 20980 2014 7988 725 2855 131 3751 6404 3039 3215 271 777 2216 2803 929 1126 1162 429 166 12436
internal_value=0.0291818 0.0382766 0.0518145 0.0331408 -0.00637481 -0.00323116 0.0174812 0.00989644 0.0128632 0.0167832 0.0627757 0.0546062 0.0844318 0.0265652 -0.0349086 -0.0262812 -0.0180573 -0.012976 -0.0227921 0.0395539 0.0552074 -0.00727681 -0.0247024 0.0790539 0.0155343 -0.0681624 0.0271394 -0.081023 -0.0833324
internal_weight=28480.4 22686.6 13716.5 5108.79 5793.83 2993.51 8970.11 3688.14 8019.01 7277.82 8607.68 5791.27 2115.28 2141.11 2105.69 1801.03 1531.27 1547.04 1162.59 1553.11 951.103 588.001 741.187 2816.41 384.443 269.756 370.844 304.659 292.569
internal_count=94600 56090 28451 15103 38510 12082 27639 14171 26063 22769 13348 10002 3021 6500 24339 11448 10155 7671 6254 3126 1576 3374 3294 3346 1417 1293 799 12891 12602
cat_boundaries=0 1 2
cat_threshold=2 1
is_linear=0
shrinkage=0.0878873


Tree=22
num_leaves=29
num_cat=2
split_feature=30 20 11 27 26 27 27 27 29 20 26 26 6 13 19 42 27 27 13 23 7 26 27 26 29 11 26 26
split_gain=1018.82 765.018 646.444 536.455 336.255 309.176 259.307 366.168 190.276 185.127 180.375 171.622 142.204 122.839 110.852 97.8816 88.0732 70.7652 64.1181 39.9442 25.4895 18.1937 21.8842 13.926 10.7348 10.5563 4.19024 6.27089
threshold=0 87.500000000000014 50367.500000000007 11062.500000000002 30.500000000000004 3044.0000000000005 12258.500000000002 14331.500000000002 1.5000000000000002 1574.0000000000002 38.500000000000007 34.500000000000007 1906.5000000000002 7557.5000000000009 3740.0000000000005 1 11845.000000000002 14331.500000000002 7557.5000000000009 36251.500000000007 7396.0000000000009 29.500000000000004 8422.0000000000018 25.500000000000004 41.500000000000007 21074.500000000004 78.500000000000014 64.500000000000014
decision_type=1 2 2 2 2 2 2 2 2 2 2 2 2 2 2 1 2 2 2 2 2 2 2 2 2 2 2 2
left_child=4 2 10 5 13 -4 14 18 26 -9 12 -5 -2 17 -6 -12 -16 19 -8 -1 24 -10 -23 -19 -15 -22 27 -3
right_child=1 8 3 11 6 -7 7 9 21 -11 15 -13 -14 20 16 -17 -18 23 -20 -21 25 22 -24 -25 -26 -27 -28 -29
leaf_value=-0.054585365877640124 -0.025972148417478101 0 0.067694997276418908 0.025045961602272016 0.057459132835789913 0.0027145323867940933 0.044712242588763766 -0.019410391418311551 0.038326364829635078 0.041980273777287025 0.02107006234574894 0.063557838031410643 0.085871383899457282 -0.04116950761006332 -0.013015390250651354 -0.040276865383687757 -0.060690313855784432 -0.020600301496141879 0.018811155625980611 0.0080777414387827214 -0.012438878650531985 0.051105387144462937 0.081306322135415207 -0.087298661486430132 0.022692319129759369 -0.076408832631715842 0 0.025657864966157878
leaf_weight=74.924727596342564 1757.2150649558753 86.417890224605799 679.36524986475706 1155.3561288937926 121.36365808919072 3120.3725298605859 2463.9093002900481 1948.4100162107497 171.00646059587598 452.84002512693405 2289.5145139209926 5163.2705184333026 76.089323397725821 19.008523723110557 1354.0280030071735 202.10504924505949 386.70208951458335 71.140486465767026 1183.6936024352908 581.06244510225952 42.157343972474337 377.64462432265282 3386.77846544981 84.716095374897122 31.67901586741209 487.88330098520964 83.568982630968094 295.93533292412758
leaf_count=535 15150 251 926 2379 292 7585 4107 16380 344 962 7236 6612 99 572 5306 968 3008 936 2273 2806 381 456 3037 719 233 10244 192 611
internal_value=0.026954 0.0386961 0.0288234 0.0409639 0.00310607 0.0146563 0.0101675 0.019017 0.070796 -0.00748726 0.000291658 0.056652 -0.0204505 -0.0364201 -0.0183056 0.0157303 -0.0242567 -0.0133217 0.0365216 0 -0.0669127 0.0770951 0.0785953 -0.063603 0 -0.0724853 0.0160649 0.01984
internal_weight=28148.2 18844.6 14443.3 10118.4 9303.52 3799.74 7910.95 6048.85 4401.35 2401.25 4324.92 6318.63 1833.3 1392.57 1862.09 2491.62 1740.73 811.844 3647.6 655.987 580.728 3935.43 3764.42 155.857 50.6875 530.041 465.922 382.353
internal_count=94600 45846 40955 17502 48754 8511 32328 23722 4891 17342 23453 8991 15249 16426 8606 8204 8314 4996 6380 3341 11430 3837 3493 1655 805 10625 1054 862
cat_boundaries=0 1 2
cat_threshold=2 1
is_linear=0
shrinkage=0.0878873


Tree=23
num_leaves=17
num_cat=0
split_feature=21 0 12 0 0 19 4 14 19 0 14 29 19 21 0 4
split_gain=1436.08 819.05 766.287 547.705 950.478 277.427 281.392 362.281 179.841 145.605 104.282 52.5921 44.9386 40.4852 22.7257 15.5002
threshold=7364.0000000000009 22860.000000000004 67564.500000000015 1925.0000000000002 6384.5000000000009 3740.0000000000005 32.500000000000007 291.00000000000006 31243.000000000004 16050.500000000002 50.500000000000007 19.500000000000004 3089.5000000000005 10041.000000000002 6473.5000000000009 33.500000000000007
decision_type=2 2 2 2 2 2 2 2 2 2 2 2 2 2 2 2
left_child=1 2 8 11 -5 12 7 -7 14 -10 -8 -4 15 -2 -1 -3
right_child=13 5 3 4 -6 6 10 -9 9 -11 -12 -13 -14 -15 -16 -17
leaf_value=0.040367703985397393 0.066737595121843019 0 0.029066981305392293 -0.01028697755131139 0.046258320115441925 -0.0065920792336084397 -0.07296694703194552 0.040574315613498411 -0.068185120924537171 0.018015720060857162 -0.017740336118716057 0.090068643653903213 0.060355945665070694 0.10223649994584644 -0.0073832003163170033 0.032912913902864556
leaf_weight=204.06360592506826 534.56776644289494 162.72785716317594 157.04837344586849 3074.3377398848534 8888.2092641722411 3923.2099178433418 277.77661580592394 1827.6275427006185 769.30082754231989 172.81329278089106 3676.9226327911019 1552.4318601377308 580.11315257847309 1598.5255848616362 94.434319034218788 253.24008275195956
leaf_count=496 553 502 823 15427 22249 19404 2665 3450 8848 472 15430 1407 897 1135 251 591
internal_value=0.0249811 0.0191609 0.0324638 0.0384797 0.0317016 0.000569468 -0.00395541 0.00840366 -0.0332009 -0.0519588 -0.0219815 0.0849874 0.0443997 0.0940567 0.0244892 0.0199329
internal_weight=27747.4 25614.3 14912.6 13672 11962.5 10701.6 9705.54 5750.84 1240.61 942.114 3954.7 1709.48 996.081 2133.09 298.498 415.968
internal_count=94600 92912 49973 39906 37676 42939 40949 22854 10067 9320 18095 2230 1990 1688 747 1093
is_linear=0
shrinkage=0.0878873


Tree=24
num_leaves=29
num_cat=1
split_feature=30 8 15 0 27 12 27 0 0 27 20 27 0 27 22 24 19 27 0 19 12 26 20 20 20 26 10 26
split_gain=887.043 661.927 581.675 500.654 297.685 289.456 255.051 209.772 415.63 181.919 157.56 104.795 98.699 97.6569 74.2526 61.6903 59.781 51.1384 46.6386 46.5629 37.9929 31.6498 30.0374 17.7712 15.4504 7.19343 2.02291 1.95701
threshold=0 1.0000000180025095e-35 62957.500000000007 22860.000000000004 11062.500000000002 67564.500000000015 3044.0000000000005 1925.0000000000002 6384.5000000000009 14331.500000000002 2254.0000000000005 8422.0000000000018 1925.0000000000002 14331.500000000002 1.0000000180025095e-35 1.0000000180025095e-35 3740.0000000000005 12258.500000000002 22860.000000000004 31243.000000000004 1716.5000000000002 24.500000000000004 898.50000000000011 295.50000000000006 2996.5000000000005 33.500000000000007 61795.500000000007 55.500000000000007
decision_type=1 2 2 2 2 2 2 2 2 2 2 2 2 2 2 2 2 2 2 2 2 2 2 2 2 2 2 2
left_child=3 2 11 5 6 19 -4 -7 -9 -6 14 15 -13 17 16 -2 -5 22 24 26 -21 -16 -3 -20 -15 -19 -1 -12
right_child=1 13 4 10 9 7 -8 8 -10 -11 27 12 -14 18 21 -17 -18 25 23 20 -22 -23 -24 -25 -26 -27 -28 -29
leaf_value=-0.0083017821503229838 -0.042376673784438781 0.045570720593692986 0.063997652666552315 0.016648968841653514 0.055035292199551875 0.078198230181313083 0.0053817212910549951 -0.025986095644077233 0.033764497381781368 0.016145047935494487 0.057124350802642172 0.058912549206670509 -0.0036576365117807269 0.032091848334421628 0.0012937050861972323 0.041309557994236121 -0.027354576154248689 0.052177893673159725 -0.022245935021055249 0 -0.078665543378642303 -0.076783740863957034 0.073627174975088666 0.019386017684706248 0.06883187639521815 0.079175578863196858 0.013033742758213689 0.025416868949409713
leaf_weight=52.103453747928143 721.93823776114732 1308.4863352328539 691.43500012904406 240.36097515188158 4989.4797945134342 498.54448778182268 3151.7332399711013 1186.3983064293861 3519.3712201397866 1195.5161876790226 94.797638993710279 197.52246855944395 2203.6728854030371 325.0705027859658 35.062943020835519 58.292666791006923 2731.540123667568 298.56314449384809 94.013960974290967 57.432355560362339 264.48106940835714 296.19889764115214 564.75873990729451 241.55964421853423 225.70722512900829 2257.8252432197332 48.967568567022681 158.73957128077745
leaf_count=228 3911 1778 956 812 6539 842 7717 8306 11430 4731 140 417 15034 683 436 121 19385 374 340 463 4392 1802 552 511 226 2123 129 339
internal_value=0.0248726 0.0359381 0.0253018 0.00248935 0.0356826 0.0188201 0.016237 0.0245836 0.0185876 0.0476359 -0.0232165 -0.0073204 0.00168555 0.062149 -0.0284432 -0.0349832 -0.0236061 0.06761 0.0337593 -0.049622 -0.0653111 -0.0677869 0.0547582 0.00622096 0.0492655 0.0764982 0 0.0412373
internal_weight=27709.6 18525.6 13209.6 9184 10028.2 5627.3 3843.17 5204.31 4705.77 6185 3556.7 3181.43 2401.2 5315.98 3303.16 780.231 2971.9 4429.63 886.351 422.984 321.913 331.262 1873.25 335.574 550.778 2556.39 101.071 253.537
internal_count=94717 46013 39426 48704 19943 25790 8673 20578 19736 11270 22914 19483 15451 6587 22435 4032 20197 4827 1760 5212 4855 2238 2330 851 909 2497 357 479
cat_boundaries=0 1
cat_threshold=2
is_linear=0
shrinkage=0.0878873


Tree=25
num_leaves=19
num_cat=1
split_feature=17 29 0 27 27 0 17 17 17 27 44 0 19 29 29 17 17 17
split_gain=1277.47 650.084 648.833 400.574 293.383 233.132 194.168 191.973 151.931 136.118 117.304 101.121 77.3535 48.0743 15.9205 6.8696 3.39883 4.03821
threshold=5750.9749999997739 48.500000000000007 22860.000000000004 11062.500000000002 3044.0000000000005 1925.0000000000002 -313.99999999999994 -1776.4999999999998 9718.5000000000018 14331.500000000002 0 1925.0000000000002 31243.000000000004 44.500000000000007 25.500000000000004 5753.9749999997739 5753.9749999997739 7345.0000000000009
decision_type=2 2 2 2 2 2 2 2 2 2 1 2 2 2 2 2 2 2
left_child=1 6 3 4 -3 -5 14 -4 13 -9 11 -8 -12 15 -1 -2 -15 -18
right_child=8 2 7 5 -6 -7 10 9 -10 -11 12 -13 -14 16 -16 -17 17 -19
leaf_value=0.022519682920648265 0.033513183929413985 0.050539707466683868 0.067690584704067636 0.081391768409671814 -0.018823350211398623 0.040022207566554002 0.0403368663969699 0.0064997517987843466 0.096603044093398066 -0.027598213205103132 0.011549792218550566 -0.012361410860110368 -0.061995917577054083 0.082319499187727407 0.081092941128670465 0.0030973079122210943 0.037690993555630194 0.064211001485058414
leaf_weight=91.108208118006587 318.99062837660313 678.43573179095984 342.5060411170125 1257.8308695815504 1445.7210404016078 7597.9302241895348 283.47921899519861 6531.5070382170379 1556.4266517087817 1032.2260377053171 122.06402909941971 4233.9060704289004 548.58029308356345 285.98122642189264 154.47089022397995 106.60092537105083 242.79001748561859 499.0306258648634
leaf_count=396 463 1189 427 1205 4130 13168 1278 17959 1243 5397 606 36558 9172 243 224 206 332 521
internal_value=0.0230685 0.0163377 0.0240465 0.0378595 0.00336755 0.0460715 -0.0103821 0.00478111 0.0769703 0.00175145 -0.0141228 -0.00884734 -0.0481231 0.0548984 0.0633878 0.0270945 0.0654881 0.0569627
internal_weight=27329.6 24319.8 18886.2 10979.9 2124.16 8855.76 5433.61 7906.24 3009.82 7563.73 5188.03 4517.39 670.644 1453.39 245.579 425.592 1027.8 741.821
internal_count=94717 91709 43475 19692 5319 14373 48234 23783 3008 23356 47614 37836 9778 1765 620 669 1096 853
cat_boundaries=0 1
cat_threshold=2
is_linear=0
shrinkage=0.0878873


Tree=26
num_leaves=20
num_cat=0
split_feature=17 0 5 19 4 17 21 27 27 4 5 27 19 17 4 5 17 19 2
split_gain=1149.58 563.648 478.574 449.531 278.137 254.125 169.353 165.327 125.743 118.979 119.777 75.3604 62.7432 45.8851 35.3085 29.5677 17.6112 16.2447 3.04883
threshold=5750.9749999997739 34985.500000000007 5.5000000000000009 3740.0000000000005 31.500000000000004 -1901.4999999999998 9429.0000000000018 14331.500000000002 8422.0000000000018 32.500000000000007 5.5000000000000009 8422.0000000000018 3740.0000000000005 -1.0000000180025095e-35 12.500000000000002 1.0000000180025095e-35 7903.5000000000009 3089.5000000000005 28890.000000000004
decision_type=2 2 2 2 2 2 2 2 2 2 2 2 2 2 2 2 2 2 2
left_child=1 2 3 18 8 -5 15 -6 -4 10 11 -3 17 -14 -12 -2 -17 -11 -1
right_child=6 9 4 5 7 -7 -8 -9 -10 12 14 -13 13 -15 -16 16 -18 -19 -20
leaf_value=0.037320638180243906 0.02508153434421995 -0.035016013474574968 0.01988084934038516 0.088243387959137998 0.031067072503195632 0.002822834342596006 0.095970266284205172 -0.030846908534312434 0.070053186675057971 -0.0065965374144398778 0 -0.00018851672420134384 0.026494907092420746 -0.032182217928842495 0.032489001025196557 0.063230500581305374 0.022768979448034191 0.036043118206251043 0.068151482964542792
leaf_weight=150.40256750956178 341.79409405589104 664.18306691199541 503.77110695280135 261.72818819433451 3946.3007565224543 9694.6567413816229 1410.2562970966101 345.56401946395636 2378.6796731166542 98.572201747447252 384.92752173729241 1705.6179240709171 90.534753516316414 1943.0844515161589 886.94405199959874 978.74644256383181 148.50601903349161 133.64607706293464 924.2938813790679
leaf_count=500 539 2802 1100 316 8153 48458 1171 1579 3812 310 1262 9563 203 10323 1877 1078 220 258 1193
internal_value=0.0213748 0.0150623 0.0227173 0.0111539 0.0403839 0.00523888 0.0737489 0.0259044 0.0615634 -0.00846489 0.00129451 -0.0102663 -0.024211 -0.0292117 0.0229805 0.0513902 0.0585999 0.0172026 0.0647635
internal_weight=26992.2 24112.9 18205.4 11031.1 7174.32 9956.38 2879.3 4291.86 2882.45 5907.51 3641.67 2369.8 2265.84 2033.62 1271.87 1469.05 1127.25 232.218 1074.7
internal_count=94717 91709 65111 50467 14644 48774 3008 9732 4912 26598 15504 12365 11094 10526 3139 1837 1298 568 1693
is_linear=0
shrinkage=0.0878873


Tree=27
num_leaves=13
num_cat=0
split_feature=21 6 26 14 0 0 13 7 21 7 6 0
split_gain=1037.94 852.164 694.872 521.708 324.001 203.427 199.706 92.8616 87.9642 75.2687 11.0461 6.42585
threshold=7055.5000000000009 1881.5000000000002 32.500000000000007 155.50000000000003 22860.000000000004 1925.0000000000002 7557.5000000000009 7396.0000000000009 9429.0000000000018 26223.000000000004 1894.5000000000002 34985.500000000007
decision_type=2 2 2 2 2 2 2 2 2 2 2 2
left_child=1 2 6 5 -5 -4 9 -8 -2 -1 -3 -12
right_child=8 10 3 4 -6 -7 7 -9 -10 -11 11 -13
leaf_value=-0.033357864160891197 0.052237971699731239 0.047677126051667747 0.04584624348201808 0.042396579515071448 0.011999131585393291 -0.0044225629344984731 0.021604306541704206 -0.050726186775197413 0.093486941253716413 0.0013226660637165055 0.091854935079149935 0.054840758512271243
leaf_weight=593.348847175017 756.02425833046436 171.64990659058094 668.43587026372552 6700.84954739362 4632.979970164597 6820.5722775291651 134.68971109669656 1513.3637479199097 1324.7688981965184 2257.4367168173194 969.66395287960768 184.85950337350368
leaf_count=5177 918 217 1850 10551 11750 30896 1677 21687 1171 7646 899 278
internal_value=0.0197516 0.0146738 0.0107298 0.0181554 0.0300363 0.000101655 -0.0202138 -0.0444501 0.0791717 -0.00591099 0.0828329 0.0870463
internal_weight=26728.6 24647.9 23321.7 18822.8 11333.8 7489.01 4498.84 1648.05 2080.79 2850.79 1326.17 1154.52
internal_count=94717 92628 91234 55047 22301 32746 36187 23364 2089 12823 1394 1177
is_linear=0
shrinkage=0.0878873


Tree=28
num_leaves=31
num_cat=3
split_feature=30 8 15 0 5 0 29 0 4 0 0 0 0 4 39 15 42 4 0 0 16 5 15 29 5 4 5 2 7 16
split_gain=653.723 485.469 356.43 276.512 261.431 191.788 168.784 119.026 117.733 151.671 150.035 101.975 139.844 89.7629 71.048 60.9013 60.7099 52.6942 45.6425 30.5952 29.1619 27.5325 24.6614 20.4309 17.1336 17.0406 15.6393 7.57282 3.97466 0.770774
threshold=0 1.0000000180025095e-35 62957.500000000007 22860.000000000004 3.5000000000000004 34985.500000000007 15.500000000000002 6384.5000000000009 41.500000000000007 6384.5000000000009 6473.5000000000009 1925.0000000000002 16050.500000000002 40.500000000000007 1 30288.500000000004 2 37.500000000000007 22860.000000000004 6473.5000000000009 2815.0000000000005 3.5000000000000004 6151.5000000000009 40.500000000000007 2.5000000000000004 32.500000000000007 4.5000000000000009 44134.500000000007 54463.000000000007 61909.000000000007
decision_type=1 2 2 2 2 2 2 2 2 2 2 2 2 2 1 2 1 2 2 2 2 2 2 2 2 2 2 2 2 2
left_child=3 2 14 4 11 7 19 -4 9 -6 -10 13 -13 -1 16 22 -2 -7 26 29 23 -22 28 -17 -20 -24 -8 -21 -5 -3
right_child=1 6 5 15 8 17 18 -9 10 -11 -12 12 -14 -15 -16 20 -18 -19 24 27 21 -23 25 -25 -26 -27 -28 -29 -30 -31
leaf_value=-0.024627596458975255 0.00056511598739816848 0.043481008524128492 0.017776176668796141 -0.05621908331572685 0.0042236637809457099 0.012326800245997476 0.054881449090005086 0.043246222079845291 0.029201861797450004 0.058427360732601089 -0.02844777818631793 -0.038949413474845138 0.0088926158740922894 0.075542899949591583 -0.074738666146252117 0.062788279656646823 -0.040976951278670425 -0.023769427022187446 0.022476159320087872 0.0085552540340460576 -0.018598953465980613 -0.038799304078721633 0.015956060837781137 -0.010491632075245689 0.049532217599561647 -0.0078135078515945283 0.072968385660853008 -0.016014329466162852 -0.015401179318109496 0.01500142211868288
leaf_weight=95.756889393553138 2764.4213936934248 102.06513499841094 2131.3992896620184 40.656664967536926 600.35737041477114 2252.5503181219101 1279.8677202351391 4822.6722161527723 932.17038092389703 1284.7660907665268 532.50911010429263 1120.925765584223 781.09971409104764 162.98457581549883 97.156959813088179 31.064143592491746 283.9686226779595 342.08981462940574 339.77208789996803 116.88317040540278 1179.8684218320996 1208.2175136292353 450.52572090551257 53.771377369761467 984.51936898753047 431.18534874543548 1581.1619733199477 257.51454456150532 118.23603777214885 89.78050721809268
leaf_count=854 11987 205 5360 495 2450 5674 1623 7924 1817 2416 1416 13875 2838 176 5623 296 1783 922 555 352 9331 7013 2753 276 1270 1977 1683 711 758 200
internal_value=0.0186215 0.028548 0.0194913 -0.000545078 0.0116878 0.0279394 0.0525255 0.0355489 0.0270469 0.0415317 0.00791871 -0.0119799 -0.0192005 0.0378553 -0.00605077 -0.0198006 -0.0033748 0.00731547 0.0586105 0.00656112 -0.0272768 -0.0291549 -0.00155034 0.0183027 0.0432027 0.00399398 0.065344 -0.00737891 -0.0320066 0.0340265
internal_weight=26469.9 17445.8 12694.3 9024.1 5510.57 9548.71 4751.56 6954.07 3349.8 1885.12 1464.68 2160.77 1902.03 258.741 3145.55 3513.53 3048.39 2594.64 4185.32 566.243 2472.92 2388.09 1040.6 84.8355 1324.29 881.711 2861.03 374.398 158.893 191.846
internal_count=94613 45872 39273 48741 25842 19880 6599 13284 8099 4866 3233 17743 16713 1030 19393 22899 13770 6596 5131 1468 16916 16344 5983 572 1825 4730 3306 1063 1253 405
cat_boundaries=0 1 2 3
cat_threshold=2 2 1
is_linear=0
shrinkage=0.0878873


Tree=29
num_leaves=13
num_cat=0
split_feature=17 6 0 14 19 20 0 0 17 17 6 0
split_gain=892.621 772.11 483.826 494.893 442.025 354.057 102.289 339.05 60.4113 38.943 10.3364 0.960972
threshold=7345.0000000000009 1881.5000000000002 1925.0000000000002 144.50000000000003 3740.0000000000005 231.50000000000003 1773.0000000000002 1508.5000000000002 9718.5000000000018 7799.9749999997739 1894.5000000000002 34985.500000000007
decision_type=2 2 2 2 2 2 2 2 2 2 2 2
left_child=1 2 6 4 -4 -5 7 -1 9 -2 -3 -12
right_child=8 10 3 5 -6 -7 -8 -9 -10 -11 11 -13
leaf_value=0.060949475181520968 0.062498975876819962 0.044343460107352684 0.045808508555916214 0.010246004145417662 -0.018578560975619374 0.051698993788854418 0.078668452063416952 -0.078866702214236681 0.088469791549157933 0.0041133157067884318 0.086245853395192001 0.055261548579997197
leaf_weight=617.93787312321365 336.30371503531933 172.35379392653704 910.46333120390773 11506.258547049016 7307.6083513721824 1843.2895810231566 785.98580233007669 153.72834082692862 1263.7046245932579 139.25629878044128 945.91905888915062 200.0930277556181
leaf_count=1148 367 223 1896 31082 52847 2357 893 1083 1245 243 940 289
internal_value=0.0172038 0.0128304 0.00905589 0.00560074 -0.0113281 0.0160504 0.0561377 0.0316269 0.0778023 0.0468124 0.0778895 0.0819609
internal_weight=26182.9 24443.6 23125.3 21567.6 8218.07 13349.5 1557.65 771.666 1739.26 475.56 1318.37 1146.01
internal_count=94613 92758 91306 88182 54743 33439 3124 2231 1855 610 1452 1229
is_linear=0
shrinkage=0.0878873


Tree=30
num_leaves=25
num_cat=0
split_feature=26 14 20 22 26 19 26 23 20 19 11 11 22 18 19 18 14 14 19 20 19 14 14 26
split_gain=579.554 422.395 344.135 241.402 201.178 155.566 128.967 108.9 107.343 77.7748 74.2222 299.277 58.2224 57.8042 49.796 56.4029 48.5491 29.4982 24.1514 20.0478 17.0021 16.6127 26.5593 2.55546
threshold=34.500000000000007 39.500000000000007 225.50000000000003 1.0000000180025095e-35 23.500000000000004 3740.0000000000005 54.500000000000007 6529.0000000000009 747.00000000000011 3740.0000000000005 35654.000000000007 21074.500000000004 1.0000000180025095e-35 1234.5000000000002 31243.000000000004 62305.000000000007 297.00000000000006 155.50000000000003 62951.500000000007 1797.0000000000002 5973.5000000000009 27.500000000000004 161.00000000000003 37.500000000000007
decision_type=2 2 2 2 2 2 2 2 2 2 2 2 2 2 2 2 2 2 2 2 2 2 2 2
left_child=4 6 3 5 14 -3 18 -6 9 -9 11 -8 17 -12 15 -1 -5 -4 19 -2 -17 -16 -23 -20
right_child=1 2 12 16 7 -7 10 8 -10 -11 13 -13 -14 -15 21 20 -18 -19 23 -21 -22 22 -24 -25
leaf_value=0.10527418870237659 -0.038563306581965162 0.052266850833026013 0.041492697037289125 -0.033894018572923471 -0.072306740221628515 0.022348093198200771 0.017100135191905789 0.038172364006180882 0.053952170852068077 -0.0050833274118623146 -0.050016701496550457 -0.069897723021426481 0 0.02819418672649119 -0.081828076656176793 -0.063226627467480048 0.0027350083006926419 0.064924680585660505 -0.019132338421480509 0.011868641048784979 0.0064302340205747294 -0.021243617844484038 -0.066797429290855789 -0.088415729396487813
leaf_weight=18.524338111281395 386.25845343060791 1549.4463014341891 815.19159604609013 580.99874830618501 146.55126120336354 11324.493210978806 910.00941930711269 328.02274610474706 262.8307618945837 4708.8210642002523 62.936900962144136 438.45111595094204 132.93470250815153 802.05892590992153 198.95661078207195 32.996064327657223 490.02147228270769 2000.8545269593596 30.11331102065742 52.178370527923107 37.578769967891276 268.20513972640038 215.84445638209581 102.22906656563282
leaf_count=171 4279 2308 1238 2118 849 25160 4492 711 344 18363 459 5143 249 3798 12515 510 1121 2358 281 120 383 4334 2410 899
internal_value=0.0159284 0.0233194 0.0285479 0.0226891 -0.00740209 0.0260359 -0.00825897 -0.0013255 0.000775059 -0.00208567 0.00128145 -0.011396 0.0558658 0.0213085 -0.0489315 0.00821602 -0.0170024 0.0585349 -0.0449268 -0.0315617 -0.0274662 -0.0569224 -0.0437302 -0.0787737
internal_weight=25896.5 19678.2 16893.9 13945 6218.33 12873.9 2784.24 5446.23 5299.67 5036.84 2213.46 1348.46 2948.98 864.996 772.105 89.0992 1071.02 2816.05 570.779 438.437 70.5748 683.006 484.05 132.342
internal_count=94613 54023 34552 30707 40590 27468 19471 20267 19418 19074 13892 9635 3845 4257 20323 1064 3239 3596 5579 4399 893 19259 6744 1180
is_linear=0
shrinkage=0.0878873


Tree=31
num_leaves=13
num_cat=1
split_feature=21 6 26 0 0 30 19 29 21 11 6 0
split_gain=831.31 669.51 419.322 374.715 299.411 278.434 91.3645 61.7151 49.6345 24.4102 9.82262 2.65241
threshold=7364.0000000000009 1881.5000000000002 27.500000000000004 22860.000000000004 6384.5000000000009 0 3740.0000000000005 24.500000000000004 9429.0000000000018 50367.500000000007 1894.5000000000002 34985.500000000007
decision_type=2 2 2 2 2 1 2 2 2 2 2 2
left_child=1 2 6 4 -4 -5 9 -8 -2 -1 -3 -12
right_child=8 10 3 5 -6 -7 7 -9 -10 -11 11 -13
leaf_value=0 0.046360874060074796 0.040275598364103611 0.0029325208127673201 -0.024968969825632618 0.031586778586038415 0.0079192036966002546 -0.071122895187670385 -0.028165343059269574 0.087727223482509484 0.090032478407929745 0.081351948166437746 0.050240897047446949
leaf_weight=39.956498485989869 412.74354573339224 166.88158687949181 4553.2805364094675 2943.0953120999038 7512.5887239445001 6030.6654115580022 338.58217832446098 1426.0898054763675 1110.4964535683393 38.262728549540043 890.18110936135054 195.94487900286913
leaf_count=450 536 223 17038 17718 14958 14862 15874 10460 1173 92 940 289
internal_value=0.0146581 0.01064 0.0071719 0.0107127 0.0208213 -0.00285124 -0.0328081 -0.0371608 0.0773362 0.0513971 0.0728247 0.0768573
internal_weight=25658.8 24135.5 22882.5 21039.6 12065.9 8973.76 1842.89 1764.67 1523.24 78.2192 1253.01 1086.13
internal_count=94613 92904 91452 64576 31996 32580 26876 26334 1709 542 1452 1229
cat_boundaries=0 1
cat_threshold=2
is_linear=0
shrinkage=0.0878873


Tree=32
num_leaves=17
num_cat=0
split_feature=17 9 6 29 0 21 11 27 29 21 21 29 21 0 17 6
split_gain=787.855 757.333 662.356 457.342 369.51 167.023 96.4703 38.2701 32.3755 60.7512 87.2397 15.8739 5.27612 11.1212 3.35997 13.0851
threshold=4655.0000000000009 1.0000000180025095e-35 1881.5000000000002 48.500000000000007 1925.0000000000002 10041.000000000002 6986.5000000000009 3541.5000000000005 25.500000000000004 4973.5000000000009 7280.0000000000009 26.500000000000004 754.00000000000011 22860.000000000004 -1902.9999999999998 1894.5000000000002
decision_type=2 2 2 2 2 2 2 2 2 2 2 2 2 2 2 2
left_child=1 2 3 6 -5 8 -1 -3 12 -10 -11 -9 13 -2 -4 -16
right_child=5 7 14 4 -6 -7 -8 11 9 10 -12 -13 -14 -15 15 -17
leaf_value=0.010720417161988424 0.035086093188316583 -0.020007597414866029 0.056090715735539837 0.061795898222683082 0.0088672564237712824 0.085218424847186253 -0.023941530380128299 -0.061398224272985441 0.071607928178546748 -0.027641210966530803 0.043825584998764447 -0.13328501786911384 0 0 0.044472746034319402 0.086737491542166825
leaf_weight=708.95095259696245 189.34440867602825 50.7738550119102 459.87226881086826 1081.3355330862105 15148.210672799498 1024.1586269512773 3986.8778261700645 96.415077567100525 473.25082007050514 147.73639595508575 631.65515077859163 267.77085402421653 120.2295628413558 134.92074581980705 167.81049460172653 600.25441408157349
leaf_count=4062 263 146 658 1353 39455 1156 42592 701 501 336 838 1111 239 260 215 565
internal_value=0.0123677 0.00694392 0.00919641 0.00547014 0.0124719 0.0569205 -0.0186134 -0.108453 0.0390129 0.0464071 0.0295468 -0.118504 0.0165223 0.0221245 0.0715415 0.0790324
internal_weight=25289.6 22568.3 22153.3 20925.4 16229.5 2721.3 4695.83 414.96 1697.14 1252.64 779.392 364.186 444.495 324.265 1227.94 768.065
internal_count=94451 90858 88900 87462 40808 3593 46654 1958 2437 1675 1174 1812 762 523 1438 780
is_linear=0
shrinkage=0.0878873


Tree=33
num_leaves=23
num_cat=3
split_feature=17 31 11 12 0 26 17 26 14 17 14 45 14 17 31 17 14 17 26 11 11 0
split_gain=695.822 563.509 484.217 229.874 194.661 174.861 166.895 152.067 144.126 140.882 99.4656 88.6679 66.3875 63.9687 43.7081 53.4018 32.5071 20.3157 13.2913 10.869 10.122 1.29142
threshold=4655.0000000000009 0 50367.500000000007 67564.500000000015 1925.0000000000002 35.500000000000007 -1.0000000180025095e-35 41.500000000000007 297.00000000000006 9718.5000000000018 69.500000000000014 1 48.500000000000007 -1943.4999999999998 2 5753.9749999997739 103.00000000000001 -1570.4999999999998 36.500000000000007 35654.000000000007 6986.5000000000009 1773.0000000000002
decision_type=2 1 2 2 2 2 2 2 2 2 2 1 2 2 1 2 2 2 2 2 2 2
left_child=1 4 7 11 12 -5 17 13 -8 14 -9 -4 19 -3 15 16 -2 -6 -16 -1 -20 -14
right_child=9 2 3 5 6 -7 8 10 -10 -11 -12 -13 21 -15 18 -17 -18 -19 20 -21 -22 -23
leaf_value=-0.058143918963932402 0.0022045680228890471 0.046914330149085144 0.0028520611096487024 0.0091523421388349079 0.023231416464181882 0.037993598179532094 -0.027916137274752024 -0.0083310123719073596 -0.0010942044146827039 0.080061223848033658 0.026409744417839633 -0.056618208908785342 0.036819533058613234 -0.028345690176121416 0.019261761237185659 -0.039888237271738271 0.05369006203658392 0.077037350897819476 0.023748004648420085 0 0.056202617304642939 0.066997476687890023
leaf_weight=33.063147780485451 211.70116120576859 74.103220768272877 588.57901645079255 2167.3001737743616 189.31860918924212 7078.8605474457145 4673.6633768901229 1403.2047431468964 2354.4607089199126 1015.6659906804562 1127.2013991996646 264.81338919699192 180.95792204514146 1950.0965123148635 184.46751196682453 95.38717445731163 185.03963895887136 106.003243021667 165.70877620577812 30.658933818340302 763.68456610292196 208.46829821169376
leaf_count=516 407 103 1414 5011 500 11332 38344 6306 7177 1240 2082 975 317 16153 299 237 220 153 252 251 938 224
internal_value=0.0114274 0.00638367 0.0165362 0.0272594 -0.0126959 0.0312991 -0.0162162 -0.00717447 -0.0190044 0.054152 0.00706912 -0.0158681 0.0420728 -0.0250759 0.0369318 0.0134841 0.0282168 0.0466001 0.0466419 -0.0318506 0.0512861 0.0558232
internal_weight=25052.4 22430.8 14654.2 10099.6 7776.59 9246.16 7323.45 4554.61 7028.12 2621.65 2530.41 853.392 453.148 2024.2 1605.99 492.128 396.741 295.322 1113.86 63.7221 929.393 389.426
internal_count=94451 90858 43376 18732 47482 16343 46174 24644 45521 3593 8388 2389 1308 16256 2353 864 627 653 1489 767 1190 541
cat_boundaries=0 1 2 3
cat_threshold=1 1 1
is_linear=0
shrinkage=0.0878873


Tree=34
num_leaves=14
num_cat=0
split_feature=21 24 26 29 27 27 27 17 7 17 17 5 27
split_gain=619.71 407.479 365.546 292.934 263.287 190.619 108.546 65.6837 46.2886 32.7884 194.772 37.5745 6.45456
threshold=9000.0000000000018 1.0000000180025095e-35 34.500000000000007 51.500000000000007 8422.0000000000018 14331.500000000002 12258.500000000002 4655.0000000000009 10704.500000000002 -1570.4999999999998 -1776.4999999999998 5.5000000000000009 14331.500000000002
decision_type=2 2 2 2 2 2 2 2 2 2 2 2 2
left_child=1 2 5 7 -5 6 -1 -4 -7 10 12 -12 -3
right_child=-2 9 3 4 -6 8 -8 -9 -10 -11 11 -13 -14
leaf_value=-0.019313799306772884 0.07980424097273954 0.060157330561583899 -0.011850429043795185 -0.0092372593958978746 0.024210629324826267 0.00095822996071779558 0.007716697223977843 0.020108980813549972 -0.060796036839516746 0.071246045665741067 -0.082515364442889108 0 0.026181687996882318
leaf_weight=2691.2768315970898 946.07622452452779 772.11028260737658 3988.7718733157963 2191.0853706225753 10072.694453634322 93.481977911666036 1956.8971832869574 545.44138833880424 733.96161608956754 496.85245735943317 79.036838110536337 78.584356244653463 125.85847621411085
leaf_count=15739 1208 947 24662 5394 20143 2987 4766 899 16192 654 396 192 272
internal_value=0.0105859 0.00777188 0.00470198 0.0111413 0.0182011 -0.0149621 -0.00786835 -0.00787057 -0.0535002 0.0511022 0.040385 -0.0452028 0.0563193
internal_weight=24772.1 23826.1 22273.6 16798 12263.8 5475.62 4648.17 4534.21 827.444 1552.44 1055.59 157.621 897.969
internal_count=94451 93243 90782 51098 25537 39684 20505 25561 19179 2461 1807 588 1219
is_linear=0
shrinkage=0.0878873


Tree=35
num_leaves=27
num_cat=1
split_feature=31 27 27 27 27 0 0 0 26 0 20 26 0 20 27 0 27 26 20 20 19 27 0 26 3 26
split_gain=563.308 394.107 286.233 243.701 236.135 188.837 160.311 223.412 124.741 124.148 119.028 105.951 103.069 98.5963 71.4354 57.4752 42.5868 37.9527 28.441 28.3817 19.9741 15.4859 8.38767 6.60778 3.48748 1.2106
threshold=0 11062.500000000002 14331.500000000002 3044.0000000000005 8422.0000000000018 1925.0000000000002 6384.5000000000009 6473.5000000000009 34.500000000000007 16050.500000000002 113.50000000000001 40.500000000000007 1925.0000000000002 11.500000000000002 13174.500000000002 6384.5000000000009 14331.500000000002 29.500000000000004 399.50000000000006 199.00000000000003 62951.500000000007 14331.500000000002 22860.000000000004 35.500000000000007 68161.000000000015 27.500000000000004
decision_type=1 2 2 2 2 2 2 2 2 2 2 2 2 2 2 2 2 2 2 2 2 2 2 2 2 2
left_child=5 3 10 17 13 16 18 14 19 -9 12 -6 -3 -5 -8 -10 -1 25 21 -4 -20 -7 -12 -19 -18 -2
right_child=1 2 8 4 11 6 7 9 15 -11 22 -13 -14 -15 -16 -17 24 23 20 -21 -22 -23 -24 -25 -26 -27
leaf_value=0.052465027031928228 -0.012236225239014008 0.065137534445166304 -0.052654325905917211 -0.033914550951005908 -0.0081953102061871116 -0.035460568703434683 0.064428340740043819 -0.076363559286019539 -0.012401628434350677 -0.010509841732317652 0.063050228582886142 0.028618495514806785 0.027723662182737807 0.018807212458061731 0.013684343831929301 0.019941491709973926 -0.03527148923615845 0.025046485052526261 -0.034276028273873146 0.017951974191834447 0.026375792634461971 -0.062291674258034911 0.039314279165559698 0.052179465948887858 0 0.00070270320683167543
leaf_weight=437.68470205366611 63.882199452258646 651.551892189309 312.68716081883758 2065.217830825597 1075.5752979340032 755.6968272710219 327.5665090829134 218.03146901354194 549.17792837508023 5423.0958485389128 1331.2095176316798 1312.9730186127126 5611.4200615668669 296.05780011415482 671.35028038732708 1598.8497426714748 25.447873797267675 194.88042028620839 63.272735975682735 34.69087965041399 73.081170555204153 364.49922182038426 344.9833172634244 658.07718211039901 36.91535469610244 45.344120141118765
leaf_count=662 369 809 7605 7728 3455 4088 420 6023 2926 28718 1832 2357 11274 490 1515 4996 392 361 241 104 122 6136 485 896 326 121
internal_value=0.00976567 0.0193679 0.0295154 0.000737588 -0.00740066 -0.00865778 -0.0120373 -0.00647991 0.00336363 -0.0133223 0.037667 0.0119445 0.0318255 -0.0270719 0.0314148 0.0114752 0.0427595 0.0407613 -0.0406808 -0.0441369 -1.0119e-05 -0.0452442 0.0587859 0.0469575 -0.0175789 -0.00454152
internal_weight=24543.2 16146.6 10434.6 5712.01 4749.82 8396.64 7896.59 6640.04 2495.41 5641.13 7939.16 2388.55 6262.97 2361.28 998.917 2148.03 500.048 962.184 1256.55 347.378 136.354 1120.2 1676.19 852.958 62.3632 109.226
internal_count=94451 45808 30031 15777 14030 48643 47263 36676 15631 34741 14400 5812 12083 8218 1935 7922 1380 1747 10587 7709 363 10224 2317 1257 718 490
cat_boundaries=0 1
cat_threshold=1
is_linear=0
shrinkage=0.0878873


Tree=36
num_leaves=13
num_cat=1
split_feature=17 6 14 19 13 4 44 19 20 20 13 4
split_gain=518.109 437.041 326.246 283.331 200.124 157.987 147.244 56.3959 41.9642 4.62053 6.35516 1.29256
threshold=9718.5000000000018 1881.5000000000002 309.00000000000006 3740.0000000000005 12949.500000000002 35.500000000000007 0 3089.5000000000005 599.00000000000011 124.50000000000001 7557.5000000000009 1.0000000180025095e-35
decision_type=2 2 2 2 2 2 1 2 2 2 2 2
left_child=1 2 3 7 5 -4 -5 -1 -6 10 -3 -2
right_child=11 9 4 6 8 -7 -8 -9 -10 -11 -12 -13
leaf_value=-0.0012868483174384067 0.044252481455838211 0.06043648488479391 0.036920910599059525 -0.0024667950207040126 -0.029740117297895777 0.008772466017602407 -0.032197159797536831 0.046316597731827371 0.039764126978733383 0.077765608947401921 0.033429257679715503 0.080215717872408568
leaf_weight=216.40997335501015 124.78431510925293 556.87373644858599 3860.2150632590055 12557.153303874657 653.08295286074281 2641.3569021206349 1424.183773024939 1032.819812618196 56.8678248077631 309.01410409063101 244.79978962987661 751.57435454055667
leaf_count=885 159 690 6896 61200 2612 5879 12790 1667 76 338 416 1064
internal_value=0.0105555 0.00804273 0.00534008 -0.00193319 0.0207223 0.0255891 -0.00555356 0.037869 -0.0229396 0.061501 0.0534267 0.0763628
internal_weight=24429.1 23552.8 22442.1 15230.6 7211.52 6501.57 13981.3 1249.23 709.951 1110.69 801.674 876.359
internal_count=94672 93449 92005 76542 15463 12775 73990 2552 2688 1444 1106 1223
cat_boundaries=0 1
cat_threshold=2
is_linear=0
shrinkage=0.0878873


Tree=37
num_leaves=12
num_cat=0
split_feature=21 6 0 0 0 27 29 29 0 27 6
split_gain=489.211 382.834 290.67 331.602 487.964 174.039 108.079 77.767 60.3782 17.9467 2.69791
threshold=9429.0000000000018 1881.5000000000002 1925.0000000000002 6384.5000000000009 6473.5000000000009 12258.500000000002 28.500000000000004 16.500000000000004 1773.0000000000002 14331.500000000002 1894.5000000000002
decision_type=2 2 2 2 2 2 2 2 2 2 2
left_child=1 2 5 6 -5 8 -4 -7 -1 10 -3
right_child=-2 9 3 4 -6 7 -8 -9 -10 -11 -12
leaf_value=-0.061236716769131332 0.07734393972601504 0.03588313621270893 -0.055142315748202143 0.045495159192287464 0.0014939796866786797 0.00056065855090428986 -0.014984269760509688 0.064787336594161582 0.037325468252014993 0.021987496141749094 0.066816174968152009
leaf_weight=138.18356872722507 785.19367739930749 143.01439995318651 653.34748348314315 2214.3567736428231 15505.470717241522 182.6018147803843 2615.5531778028235 1036.5681348089129 52.630985409021378 145.1327088624239 787.09364458546042
leaf_count=587 1152 195 10678 3653 65660 1277 8883 1262 76 293 956
internal_value=0.00973582 0.00740919 0.00491191 0.00228361 0.00704812 0.0433299 -0.0233442 0.0555897 -0.0315297 0.0582863 0.063112
internal_weight=24259.1 23474 22398.7 20988.7 17719.8 1409.98 3268.9 1219.17 190.815 1075.24 930.108
internal_count=94672 93520 92076 88874 69313 3202 19561 2539 663 1444 1151
is_linear=0
shrinkage=0.0878873


Tree=38
num_leaves=17
num_cat=1
split_feature=21 30 20 15 0 27 0 0 27 20 17 27 19 20 27 0
split_gain=441.921 306.825 258.946 291.16 166.134 129.055 94.2535 195 98.3999 84.448 74.0483 59.5667 50.2576 26.4639 25.9284 9.35929
threshold=9429.0000000000018 0 87.500000000000014 62957.500000000007 22860.000000000004 12258.500000000002 6384.5000000000009 1925.0000000000002 13174.500000000002 1574.0000000000002 -1901.4999999999998 14331.500000000002 3740.0000000000005 4002.0000000000005 12258.500000000002 34985.500000000007
decision_type=2 1 2 2 2 2 2 2 2 2 2 2 2 2 2 2
left_child=1 4 3 10 6 -5 7 -1 -8 12 -3 14 -6 -13 -4 -11
right_child=-2 2 11 5 9 -7 8 -9 -10 15 -12 13 -14 -15 -16 -17
leaf_value=0.034772422000581227 0.07525266236461324 0.048371719436649967 0.032700723678024006 0.0067880900285592176 0.0094739826673128462 0.02762443558866633 0.030130456751683556 -0.032171162250930037 -0.00056162466905566248 0.038277940243355145 -0.018385349985461711 0 -0.030061568913208808 0.037476961041122789 0.054586939490907885 0.0025908521172212889
leaf_weight=445.52899684477597 738.63912602514029 117.02763522416353 996.57306275516748 5165.5037162154913 251.11897149123251 4226.9691741559654 1336.0338564142585 1203.2442561318167 1944.816532718949 137.44053657352924 2820.5635844096541 421.99930748715997 2728.7614142838866 210.1469297632575 1195.762082464993 132.07777465134859
leaf_count=1376 1152 160 1482 11565 854 9237 3158 10505 10542 254 19434 1101 21496 281 1692 383
internal_value=0.00898397 0.00682191 0.0142285 0.00866704 -0.00685811 0.016234 0.00325234 -0.013708 0.0119101 -0.02225 -0.0153623 0.0381984 -0.0265769 0.0131849 0.0451029 0.0231572
internal_weight=24072.2 23333.6 15154.5 12330.1 8179.02 9392.47 4929.62 1648.77 3280.85 3249.4 2937.59 2824.48 2979.88 632.146 2192.34 269.518
internal_count=94672 93520 44952 40396 48568 20802 25581 11881 13700 22987 19594 4556 22350 1382 3174 637
cat_boundaries=0 1
cat_threshold=2
is_linear=0
shrinkage=0.0878873


Tree=39
num_leaves=17
num_cat=0
split_feature=17 20 19 5 19 19 5 27 20 17 7 19 20 5 4 4
split_gain=380.29 272.549 205.683 260.381 202.209 133.009 104.803 55.8961 32.7483 32.6076 32.5717 24.3203 27.5406 19.2289 11.5331 5.37578
threshold=9718.5000000000018 386.50000000000006 3740.0000000000005 2.5000000000000004 8023.5000000000009 62951.500000000007 1.5000000000000002 14331.500000000002 927.50000000000011 175.50000000000003 54463.000000000007 3740.0000000000005 1495.0000000000002 5.5000000000000009 32.500000000000007 1.0000000180025095e-35
decision_type=2 2 2 2 2 2 2 2 2 2 2 2 2 2 2 2
left_child=1 2 7 5 -5 -4 11 9 10 -1 -8 -3 -13 -9 -10 -2
right_child=15 6 3 4 -6 -7 8 13 14 -11 -12 12 -14 -15 -16 -17
leaf_value=0.041261220852729194 0.034991974899066268 0.045390711536750949 -0.0041200056327269719 -0.01808708878108907 0.012012694543670417 -0.031017596221700725 -0.0036632297190392553 -0.045348891729241517 0.063976576253287787 -0.0024948686500992864 0.037798438328894811 -0.016690121038622843 0.01385309030737765 0.0065061780846923361 0.040916000825525781 0.074538178793803547
leaf_weight=1388.0277621075511 111.19682933390141 114.84329500049353 3455.4356918367557 2044.5029943166301 10374.029679299332 2446.8414548328146 188.20060032606125 58.479174447245896 558.06103231012821 126.17526968568563 447.19295719265938 307.23545687273145 726.03264754638076 178.12947160284966 689.55113250017166 624.77904161065817
leaf_count=2300 159 157 33339 5815 32236 12631 424 534 714 250 683 1166 1653 500 1047 1064
internal_value=0.0083138 0.00629066 0.00255104 -0.000190575 0.00701168 -0.0153841 0.0307954 0.031194 0.0435361 0.0373898 0.0251667 0.00928524 0.00431271 -0.00687982 0.0521791 0.0698939
internal_weight=23838.7 23102.7 20071.6 18320.8 12418.5 5902.28 3031.12 1750.81 1883.01 1514.2 635.394 1148.11 1033.27 236.609 1247.61 735.976
internal_count=94672 93449 87605 84021 38051 45970 5844 3584 2868 2550 1107 2976 2819 1034 1761 1223
is_linear=0
shrinkage=0.0878873


Tree=40
num_leaves=17
num_cat=4
split_feature=17 0 31 2 5 2 8 5 4 44 31 8 8 8 32 17
split_gain=360.093 299.343 224.555 190.316 132.253 111.208 99.861 87.9197 79.3438 80.027 70.2209 61.2548 32.5117 27.9791 30.1363 15.4659
threshold=9718.5000000000018 34985.500000000007 0 28890.000000000004 5.5000000000000009 17907.000000000004 1.0000000180025095e-35 3.5000000000000004 32.500000000000007 1 2 1.0000000180025095e-35 1.0000000180025095e-35 1.0000000180025095e-35 3 299.00000000000006
decision_type=2 2 1 2 2 2 2 2 2 1 1 2 2 2 1 2
left_child=1 2 5 6 -5 11 -4 -7 9 10 -3 -1 -11 14 -10 -15
right_child=-2 8 3 4 -6 7 -8 -9 13 12 -12 -13 -14 15 -16 -17
leaf_value=-0.051675317483218158 0.067824031094896708 -0.025488398013682426 -0.014547281693956162 0.015212634912720168 0.037964715253536951 -0.012453806274587944 0.027623634700715112 0.0097603291286467112 -0.024836759894470047 -0.056278149558249203 0.0062651959344429782 0.020266967103554509 0.020725385112350829 -0.0204475436202705 -0.05824870919034647 0.013489006705300099
leaf_weight=484.51349352765828 700.2308890838176 663.60128381475806 1769.3799819536507 5277.9886400606483 3261.9403995871544 2274.5846159188077 554.63965468201786 3425.140527676791 1560.9152673054487 275.18553718272597 2566.6399523857981 94.953652637079358 33.849727559834719 189.93324269726872 268.63872549403459 186.28498321771622
leaf_count=10455 1213 5961 14148 12153 4988 14093 1073 9186 8430 2115 7517 296 80 608 1765 398
internal_value=0.0064011 0.00446132 0.0102901 0.0179333 0.0239987 -0.00288777 -0.00421121 0.000822145 -0.0128497 -0.00453152 -0.00023729 -0.0390556 -0.0461375 -0.0259081 -0.0303891 -0.00285005
